{"learner":{"attributes":{"scikit_learn":"{\"_estimator_type\": \"classifier\"}"},"feature_names":["url","url_length","num_special_chars"],"feature_types":["float","float","float"],"gradient_booster":{"model":{"gbtree_model_param":{"num_parallel_tree":"1","num_trees":"100"},"iteration_indptr":[0,1,2,3,4,5,6,7,8,9,10,11,12,13,14,15,16,17,18,19,20,21,22,23,24,25,26,27,28,29,30,31,32,33,34,35,36,37,38,39,40,41,42,43,44,45,46,47,48,49,50,51,52,53,54,55,56,57,58,59,60,61,62,63,64,65,66,67,68,69,70,71,72,73,74,75,76,77,78,79,80,81,82,83,84,85,86,87,88,89,90,91,92,93,94,95,96,97,98,99,100],"tree_info":[0,0,0,0,0,0,0,0,0,0,0,0,0,0,0,0,0,0,0,0,0,0,0,0,0,0,0,0,0,0,0,0,0,0,0,0,0,0,0,0,0,0,0,0,0,0,0,0,0,0,0,0,0,0,0,0,0,0,0,0,0,0,0,0,0,0,0,0,0,0,0,0,0,0,0,0,0,0,0,0,0,0,0,0,0,0,0,0,0,0,0,0,0,0,0,0,0,0,0,0],"trees":[{"base_weights":[-2.6882272E-2,-1.1406138E0,4.176284E-1,8.77831E-1,-1.3038781E0,2.0284698E0,-6.2578726E-1,-1.0704103E0,-1.4224356E0,2.8668597E0,1.2181317E0,-1.0247874E0,8.1942064E-1,-1.1034073E0,-2.2129317E-1,-1.4376634E0,-1.2882454E0,2.9166424E0,5.5078477E-1,6.028549E-2,2.6555717E0,2.9208596E0,-1.2112426E0,1.6225002E0,-1.1309432E0,-1.1192331E0,-8.838787E-1,7.709837E-2,-1.1707896E0,-1.258471E0,-1.444201E0,-1.2024509E0,-1.4367385E0,-6.9718593E-1,2.9315417E0,-5.3834116E-1,8.0872995E-1,-7.1351266E-1,1.8057654E0,8.84963E-1,1.0340986E0,8.7718153E-1,1.7018698E0,-9.408592E-1,-1.4078066E0,2.2006526E0,-8.904127E-1,8.5302746E-1,-1.2317321E0,-3.2481474E-1,-3.6268312E-1,-1.5676294E-1,-3.052733E-1,-2.7810785E-1,5.534937E-2,-2.7550614E-1,-4.131506E-1,-1.998265E-1,-4.4043878E-1,-4.254042E-1,-4.4422486E-1,-3.7351233E-1,-2.1859305E-1,-4.4376746E-1,-3.9650083E-1,7.718172E-1,-3.0894414E-1,5.760993E-1,8.8666475E-1,8.1265724E-1,-3.264124E-1,3.7866598E-1,-2.8540125E-2,-2.834032E-1,-1.8463088E-2,5.1861954E-1,8.5644156E-1,4.0611073E-2,4.8706388E-1,1.2420464E-1,5.7040066E-1,-3.286909E-1,-8.208698E-2,-4.2507455E-1,-2.3803182E-1,7.0508385E-1,4.412877E-1,-8.177943E-2,-3.8527113E-1,2.1499598E-2,-4.3444985E-1],"categories":[],"categories_nodes":[],"categories_segments":[],"categories_sizes":[],"default_left":[0,0,0,0,0,0,0,0,0,0,0,0,0,0,0,0,0,0,0,0,0,0,0,0,0,0,0,0,0,0,0,0,0,0,0,0,0,0,0,0,0,0,0,0,0,0,0,0,0,0,0,0,0,0,0,0,0,0,0,0,0,0,0,0,0,0,0,0,0,0,0,0,0,0,0,0,0,0,0,0,0,0,0,0,0,0,0,0,0,0,0],"id":0,"left_children":[1,3,5,-1,7,9,11,13,15,17,19,21,23,25,27,29,31,33,35,37,39,41,43,45,47,49,51,53,55,57,59,61,63,65,67,69,71,73,75,-1,77,-1,79,81,83,85,87,-1,89,-1,-1,-1,-1,-1,-1,-1,-1,-1,-1,-1,-1,-1,-1,-1,-1,-1,-1,-1,-1,-1,-1,-1,-1,-1,-1,-1,-1,-1,-1,-1,-1,-1,-1,-1,-1,-1,-1,-1,-1,-1,-1],"loss_changes":[7.10534E4,2.7187262E4,1.7241745E5,0E0,1.0880078E3,2.739314E4,3.590018E4,3.7130273E2,5.148828E1,2.2835625E3,3.413164E4,3.5895727E4,2.1099691E4,4.3356445E1,1.4098451E2,2.5632812E1,3.2286133E1,1.0467031E3,1.1794258E2,1.5344093E4,4.3630156E3,3.2851562E0,2.4746484E3,1.3864473E4,1.577458E3,3.768457E1,4.1163757E1,4.1077938E1,4.9334717E0,1.0243359E2,1.953125E1,3.336377E1,2.7996826E0,9.01734E1,4.6339062E2,1.4698427E2,1.3890111E2,1.1862261E3,2.7704688E2,0E0,7.4517236E2,0E0,1.252367E0,2.0252832E3,1.498164E2,8.434961E2,4.340504E2,0E0,1.081331E3,0E0,0E0,0E0,0E0,0E0,0E0,0E0,0E0,0E0,0E0,0E0,0E0,0E0,0E0,0E0,0E0,0E0,0E0,0E0,0E0,0E0,0E0,0E0,0E0,0E0,0E0,0E0,0E0,0E0,0E0,0E0,0E0,0E0,0E0,0E0,0E0,0E0,0E0,0E0,0E0,0E0,0E0],"parents":[2147483647,0,0,1,1,2,2,4,4,5,5,6,6,7,7,8,8,9,9,10,10,11,11,12,12,13,13,14,14,15,15,16,16,17,17,18,18,19,19,20,20,21,21,22,22,23,23,24,24,25,25,26,26,27,27,28,28,29,29,30,30,31,31,32,32,33,33,34,34,35,35,36,36,37,37,38,38,40,40,42,42,43,43,44,44,45,45,46,46,48,48],"right_children":[2,4,6,-1,8,10,12,14,16,18,20,22,24,26,28,30,32,34,36,38,40,42,44,46,48,50,52,54,56,58,60,62,64,66,68,70,72,74,76,-1,78,-1,80,82,84,86,88,-1,90,-1,-1,-1,-1,-1,-1,-1,-1,-1,-1,-1,-1,-1,-1,-1,-1,-1,-1,-1,-1,-1,-1,-1,-1,-1,-1,-1,-1,-1,-1,-1,-1,-1,-1,-1,-1,-1,-1,-1,-1,-1,-1],"split_conditions":[1.82884E5,1E0,3.6302E5,8.77831E-1,2E0,8.3E1,5.80952E5,1.77893E5,1.60355E5,3.60485E5,2.73142E5,1E0,6.23571E5,1.67857E5,4.9E1,5.021E3,6.1E1,2E0,2E0,6E0,3.43233E5,8.4E1,2E0,6.4E1,1E0,1.25265E5,1.70367E5,2.1E1,6E1,1.04E2,5.7E1,4E0,3E0,1E0,1.85424E5,1E0,6.5E1,4E0,2.68148E5,8.84963E-1,1.04E2,8.7718153E-1,9.3E1,5.35887E5,5.78518E5,4.8E1,8.3E1,8.5302746E-1,6.26095E5,-3.2481474E-1,-3.6268312E-1,-1.5676294E-1,-3.052733E-1,-2.7810785E-1,5.534937E-2,-2.7550614E-1,-4.131506E-1,-1.998265E-1,-4.4043878E-1,-4.254042E-1,-4.4422486E-1,-3.7351233E-1,-2.1859305E-1,-4.4376746E-1,-3.9650083E-1,7.718172E-1,-3.0894414E-1,5.760993E-1,8.8666475E-1,8.1265724E-1,-3.264124E-1,3.7866598E-1,-2.8540125E-2,-2.834032E-1,-1.8463088E-2,5.1861954E-1,8.5644156E-1,4.0611073E-2,4.8706388E-1,1.2420464E-1,5.7040066E-1,-3.286909E-1,-8.208698E-2,-4.2507455E-1,-2.3803182E-1,7.0508385E-1,4.412877E-1,-8.177943E-2,-3.8527113E-1,2.1499598E-2,-4.3444985E-1],"split_indices":[0,2,0,0,2,1,0,0,0,0,0,2,0,0,1,0,1,2,2,2,0,1,2,1,2,0,0,1,1,1,1,2,2,2,0,2,1,2,0,0,1,0,1,0,0,1,1,0,0,0,0,0,0,0,0,0,0,0,0,0,0,0,0,0,0,0,0,0,0,0,0,0,0,0,0,0,0,0,0,0,0,0,0,0,0,0,0,0,0,0,0],"split_type":[0,0,0,0,0,0,0,0,0,0,0,0,0,0,0,0,0,0,0,0,0,0,0,0,0,0,0,0,0,0,0,0,0,0,0,0,0,0,0,0,0,0,0,0,0,0,0,0,0,0,0,0,0,0,0,0,0,0,0,0,0,0,0,0,0,0,0,0,0,0,0,0,0,0,0,0,0,0,0,0,0,0,0,0,0,0,0,0,0,0,0],"sum_hessian":[1.4352125E5,4.0941027E4,1.0258023E5,1.5795453E3,3.936148E4,4.032497E4,6.225526E4,1.3259809E4,2.6101672E4,1.981819E4,2.0506777E4,4.878637E4,1.3468892E4,1.2763514E4,4.9629422E2,2.3432832E4,2.6688406E3,1.9400918E4,4.1727216E2,1.1358578E4,9.1482E3,2.2007524E3,4.6585617E4,9.540624E3,3.9282683E3,1.1901436E4,8.620789E2,3.783208E2,1.1797341E2,8.3163416E2,2.2601197E4,1.6972948E3,9.715457E2,7.946976E1,1.9321447E4,7.969361E1,3.3757855E2,7.870192E3,3.4883865E3,7.742145E3,1.4060549E3,2.193813E3,6.9396124E0,1.9612912E4,2.6972705E4,7.756248E3,1.7843757E3,9.6482994E1,3.8317852E3,8.46767E3,3.433765E3,2.3415594E2,6.27923E2,3.5817352E1,3.4250345E2,5.55169E1,6.2456512E1,2.1848586E2,6.131483E2,1.3190188E4,9.41101E3,1.5558163E3,1.4147855E2,7.009008E2,2.7064487E2,6.715754E0,7.2754E1,4.499555E2,1.8871492E4,1.0969065E1,6.872455E1,2.2453003E2,1.1304852E2,5.809799E3,2.0603933E3,3.2522158E3,2.3617067E2,5.574076E2,8.486474E2,1.3431507E0,5.5964613E0,1.5919471E4,3.6934407E3,2.6577371E4,3.9533405E2,6.4345874E3,1.3216604E3,6.953044E2,1.0890714E3,5.457669E2,3.2860183E3],"tree_param":{"num_deleted":"0","num_feature":"3","num_nodes":"91","size_leaf_vector":"1"}},{"base_weights":[-6.0226224E-2,-9.612599E-1,2.600199E-1,5.3602904E-1,-1.1042297E0,1.278261E0,-5.1788247E-1,-8.7235296E-1,-1.2280357E0,1.7549169E0,7.868577E-1,-8.520119E-1,5.2653986E-1,-9.0273714E-1,-1.6781507E-1,-1.2443379E0,-1.0875455E0,1.7829064E0,3.6101675E-1,-2.8352642E-3,1.6069084E0,1.7836347E0,-1.0113689E0,9.6831936E-1,-1.1629038E0,-9.265863E-1,-7.6802814E-1,5.1345427E-2,-9.731392E-1,-1.0601622E0,-1.2512405E0,-1.0003904E0,-1.2436486E0,9.548241E-1,5.4168314E-1,-4.3419227E-1,5.233397E-1,-5.6645244E-1,1.0762519E0,1.7671782E0,6.59616E-1,5.3553E-1,1.0902725E0,-7.5257754E-1,-1.2121252E0,1.3238109E0,-8.3190614E-1,5.367356E-1,-1.2555729E0,-2.6638463E-1,-3.3399788E-1,-2.1885334E-1,-3.3706817E-1,-1.828119E-1,4.363235E-2,-2.1988082E-1,-3.548898E-1,-1.5297532E-1,-3.8329688E-1,-3.6687452E-1,-3.8734695E-1,-1.5435445E-1,-3.1615207E-1,-3.8693437E-1,-3.3656353E-1,4.436411E-1,-1.995783E-2,5.178393E-1,-2.672625E-1,2.3179261E-1,-5.957492E-2,1.9832695E-1,-2.0738041E-1,3.053422E-1,5.610191E-1,2.6586196E-1,5.40594E-1,7.431194E-2,3.8126397E-1,1.4563742E-1,4.2423826E-1,-2.6847795E-1,-5.9446674E-2,-3.6651736E-1,-1.8556693E-1,4.427448E-1,3.041032E-1,2.1446444E-2,-3.0311692E-1,-2.709569E-1,-3.9310095E-1],"categories":[],"categories_nodes":[],"categories_segments":[],"categories_sizes":[],"default_left":[0,0,0,0,0,0,0,0,0,0,0,0,0,0,0,0,0,0,0,0,0,0,0,0,0,0,0,0,0,0,0,0,0,0,0,0,0,0,0,0,0,0,0,0,0,0,0,0,0,0,0,0,0,0,0,0,0,0,0,0,0,0,0,0,0,0,0,0,0,0,0,0,0,0,0,0,0,0,0,0,0,0,0,0,0,0,0,0,0,0,0],"id":1,"left_children":[1,3,5,-1,7,9,11,13,15,17,19,21,23,25,27,29,31,33,35,37,39,41,43,45,47,49,51,53,55,57,59,61,63,65,-1,67,69,71,73,75,77,-1,79,81,83,85,87,-1,89,-1,-1,-1,-1,-1,-1,-1,-1,-1,-1,-1,-1,-1,-1,-1,-1,-1,-1,-1,-1,-1,-1,-1,-1,-1,-1,-1,-1,-1,-1,-1,-1,-1,-1,-1,-1,-1,-1,-1,-1,-1,-1],"loss_changes":[3.8847785E4,1.3871916E4,7.86769E4,0E0,9.622969E2,1.0074844E4,1.965096E4,2.4996973E2,4.8742188E1,8.5128906E2,1.3718111E4,1.7920148E4,1.018806E4,3.527246E1,8.552526E1,2.3583984E1,2.9806885E1,4.0072656E2,5.5872704E1,6.564482E3,1.5765664E3,5.253906E-1,2.089207E3,6.925581E3,7.7634326E2,6.763721E1,2.2331543E1,2.3815554E1,4.357094E0,8.483789E1,1.9765625E1,3.762561E1,3.123413E0,3.0694055E2,0E0,7.417588E1,6.466888E1,1.0867866E3,1.6990576E2,2.7088672E2,3.7871326E2,0E0,8.214636E-1,1.3870576E3,1.2832031E2,4.244873E2,2.878739E2,0E0,5.177295E1,0E0,0E0,0E0,0E0,0E0,0E0,0E0,0E0,0E0,0E0,0E0,0E0,0E0,0E0,0E0,0E0,0E0,0E0,0E0,0E0,0E0,0E0,0E0,0E0,0E0,0E0,0E0,0E0,0E0,0E0,0E0,0E0,0E0,0E0,0E0,0E0,0E0,0E0,0E0,0E0,0E0,0E0],"parents":[2147483647,0,0,1,1,2,2,4,4,5,5,6,6,7,7,8,8,9,9,10,10,11,11,12,12,13,13,14,14,15,15,16,16,17,17,18,18,19,19,20,20,21,21,22,22,23,23,24,24,25,25,26,26,27,27,28,28,29,29,30,30,31,31,32,32,33,33,35,35,36,36,37,37,38,38,39,39,40,40,42,42,43,43,44,44,45,45,46,46,48,48],"right_children":[2,4,6,-1,8,10,12,14,16,18,20,22,24,26,28,30,32,34,36,38,40,42,44,46,48,50,52,54,56,58,60,62,64,66,-1,68,70,72,74,76,78,-1,80,82,84,86,88,-1,90,-1,-1,-1,-1,-1,-1,-1,-1,-1,-1,-1,-1,-1,-1,-1,-1,-1,-1,-1,-1,-1,-1,-1,-1,-1,-1,-1,-1,-1,-1,-1,-1,-1,-1,-1,-1,-1,-1,-1,-1,-1,-1],"split_conditions":[1.82884E5,1E0,3.6302E5,5.3602904E-1,2E0,8.3E1,5.80952E5,1.77893E5,1.60355E5,3.60485E5,2.70635E5,1E0,6.26095E5,1.57834E5,4.9E1,5.021E3,6.1E1,1.85424E5,2E0,6E0,3.43233E5,8.8E1,2E0,6.5E1,1E0,1.3278E5,1.75417E5,2.3E1,6E1,1.04E2,5.7E1,1.62889E5,3E0,3.6E1,5.4168314E-1,1E0,6.9E1,2.02944E5,2.03E2,2.73142E5,6E0,5.3553E-1,4.65704E5,5.35887E5,5.78518E5,4.1E1,7.2E1,5.367356E-1,2E0,-2.6638463E-1,-3.3399788E-1,-2.1885334E-1,-3.3706817E-1,-1.828119E-1,4.363235E-2,-2.1988082E-1,-3.548898E-1,-1.5297532E-1,-3.8329688E-1,-3.6687452E-1,-3.8734695E-1,-1.5435445E-1,-3.1615207E-1,-3.8693437E-1,-3.3656353E-1,4.436411E-1,-1.995783E-2,5.178393E-1,-2.672625E-1,2.3179261E-1,-5.957492E-2,1.9832695E-1,-2.0738041E-1,3.053422E-1,5.610191E-1,2.6586196E-1,5.40594E-1,7.431194E-2,3.8126397E-1,1.4563742E-1,4.2423826E-1,-2.6847795E-1,-5.9446674E-2,-3.6651736E-1,-1.8556693E-1,4.427448E-1,3.041032E-1,2.1446444E-2,-3.0311692E-1,-2.709569E-1,-3.9310095E-1],"split_indices":[0,2,0,0,2,1,0,0,0,0,0,2,0,0,1,0,1,0,2,2,0,1,2,1,2,0,0,1,1,1,1,0,2,1,0,2,1,0,1,0,2,0,0,0,0,1,1,0,2,0,0,0,0,0,0,0,0,0,0,0,0,0,0,0,0,0,0,0,0,0,0,0,0,0,0,0,0,0,0,0,0,0,0,0,0,0,0,0,0,0,0],"split_type":[0,0,0,0,0,0,0,0,0,0,0,0,0,0,0,0,0,0,0,0,0,0,0,0,0,0,0,0,0,0,0,0,0,0,0,0,0,0,0,0,0,0,0,0,0,0,0,0,0,0,0,0,0,0,0,0,0,0,0,0,0,0,0,0,0,0,0,0,0,0,0,0,0,0,0,0,0,0,0,0,0,0,0,0,0,0,0,0,0,0,0],"sum_hessian":[1.3462798E5,3.5301863E4,9.9326125E4,1.7452332E3,3.355663E4,4.301746E4,5.6308664E4,1.1683188E4,2.187344E4,2.1835084E4,2.1182379E4,4.266087E4,1.3647794E4,1.1199896E4,4.8329233E2,1.9592156E4,2.2812847E3,2.1404992E4,4.300908E2,1.0791433E4,1.0390945E4,2.4317246E3,4.0229145E4,1.0819093E4,2.8287014E3,9.510297E3,1.6896001E3,3.8064108E2,1.0265123E2,7.133466E2,1.8878809E4,1.468695E3,8.125897E2,5.723581E2,2.0832635E4,7.2626015E1,3.5746478E2,7.089169E3,3.7022634E3,8.886583E3,1.504362E3,2.425026E3,6.698713E0,1.7576436E4,2.2652709E4,9.035176E3,1.7839166E3,8.553796E1,2.7431636E3,7.884668E3,1.6256285E3,1.5272008E3,1.6239919E2,4.676837E1,3.338727E2,4.995609E1,5.2695137E1,2.0303275E2,5.1031387E2,1.1061145E4,7.817665E3,1.4660793E2,1.322087E3,5.8236847E2,2.3022124E2,3.7799088E2,1.9436719E2,1.2188582E1,6.0437428E1,2.6565543E2,9.180934E1,6.5389667E2,6.4352725E3,3.4505015E3,2.5176204E2,3.3871747E2,8.547866E3,8.99575E2,6.047871E2,3.2075186E0,3.491194E0,1.3985117E4,3.5913188E3,2.2291152E4,3.6155722E2,6.060835E3,2.9743408E3,2.9440164E2,1.4895149E3,3.7132407E2,2.3718394E3],"tree_param":{"num_deleted":"0","num_feature":"3","num_nodes":"91","size_leaf_vector":"1"}},{"base_weights":[-5.8670487E-2,-8.357895E-1,2.0240968E-1,1.4461727E0,-9.615361E-1,1.0067896E0,-4.383042E-1,4.3422288E-1,6.629309E-1,-7.182736E-1,-1.1013516E0,1.4181783E0,6.022286E-1,-7.2658366E-1,3.9236867E-1,3.03675E-1,-5.5681325E-2,-7.466907E-1,-1.2804386E-1,-1.1216481E0,-9.4903266E-1,-6.178738E-1,1.4334238E0,1.1538676E-2,1.294033E0,1.442584E0,-8.6308223E-1,7.124663E-1,-1.0481099E0,-9.2823076E-1,-7.2660345E-1,3.4431655E-2,-8.233302E-1,-9.170318E-1,-1.1297286E0,-8.5622734E-1,-1.1349194E0,4.394493E-1,-9.2628944E-1,1.4540663E0,3.5967213E-1,-5.5955285E-1,7.1560204E-1,4.3926513E-1,4.5378226E-1,4.3340003E-1,9.383653E-1,-6.051566E-1,-1.0823627E0,9.907291E-1,-5.8927876E-1,4.3259102E-1,-1.1341672E0,-2.8357422E-1,-1.5397325E-1,-2.2324055E-1,-1.4744768E-1,-1.8702307E-1,2.7362378E-2,-1.7582323E-1,-3.152967E-1,-1.058623E-1,-3.4400454E-1,-3.2910204E-1,-3.5301661E-1,-2.732983E-1,-1.0024624E-1,-3.5256186E-1,-3.104058E-1,-2.8561363E-1,2.3409735E-1,2.7307418E-1,4.4058833E-1,1.5773238E-1,-4.2950153E-2,-1.9534256E-1,2.5589442E-1,1.9441654E-1,5.087988E-1,-5.864471E-2,2.2011206E-1,3.0520963E-2,3.0668697E-1,-2.2154534E-1,-4.274723E-2,-3.280055E-1,-1.441268E-1,3.2939723E-1,2.1584958E-1,-7.9395875E-2,-3.5414046E-1,-2.2685343E-1,-3.592604E-1],"categories":[],"categories_nodes":[],"categories_segments":[],"categories_sizes":[],"default_left":[0,0,0,0,0,0,0,0,0,0,0,0,0,0,0,0,0,0,0,0,0,0,0,0,0,0,0,0,0,0,0,0,0,0,0,0,0,0,0,0,0,0,0,0,0,0,0,0,0,0,0,0,0,0,0,0,0,0,0,0,0,0,0,0,0,0,0,0,0,0,0,0,0,0,0,0,0,0,0,0,0,0,0,0,0,0,0,0,0,0,0,0,0],"id":2,"left_children":[1,3,5,7,9,11,13,-1,15,17,19,21,23,25,27,-1,-1,29,31,33,35,37,39,41,43,45,47,49,51,53,55,57,59,61,63,65,67,-1,69,71,73,75,77,-1,79,-1,81,83,85,87,89,-1,91,-1,-1,-1,-1,-1,-1,-1,-1,-1,-1,-1,-1,-1,-1,-1,-1,-1,-1,-1,-1,-1,-1,-1,-1,-1,-1,-1,-1,-1,-1,-1,-1,-1,-1,-1,-1,-1,-1,-1,-1],"loss_changes":[2.3819219E4,8.472957E3,4.5290113E4,5.3393555E-1,9.50916E2,6.4837227E3,1.1713843E4,0E0,1.4554838E0,1.7124658E2,5.386328E1,6.005156E2,8.0281387E3,1.0753244E4,5.8118555E3,0E0,0E0,3.48667E1,5.317408E1,2.4876953E1,3.5179688E1,9.40261E1,4.2446484E2,4.2618706E3,1.2932451E3,9.0234375E-1,1.9316113E3,3.7359033E3,4.927417E2,6.3460083E0,3.582373E1,1.4335729E1,4.1994057E0,7.742389E1,2.1886719E1,3.9776855E1,1.5894775E0,0E0,6.2932816E0,1.4763672E2,3.039336E1,7.576925E2,3.1326367E2,0E0,2.773874E2,0E0,7.173681E-1,9.684341E2,1.2160742E2,2.4639062E2,3.4834772E2,0E0,5.216748E1,0E0,0E0,0E0,0E0,0E0,0E0,0E0,0E0,0E0,0E0,0E0,0E0,0E0,0E0,0E0,0E0,0E0,0E0,0E0,0E0,0E0,0E0,0E0,0E0,0E0,0E0,0E0,0E0,0E0,0E0,0E0,0E0,0E0,0E0,0E0,0E0,0E0,0E0,0E0,0E0],"parents":[2147483647,0,0,1,1,2,2,3,3,4,4,5,5,6,6,8,8,9,9,10,10,11,11,12,12,13,13,14,14,17,17,18,18,19,19,20,20,21,21,22,22,23,23,24,24,25,25,26,26,27,27,28,28,29,29,30,30,31,31,32,32,33,33,34,34,35,35,36,36,38,38,39,39,40,40,41,41,42,42,44,44,46,46,47,47,48,48,49,49,50,50,52,52],"right_children":[2,4,6,8,10,12,14,-1,16,18,20,22,24,26,28,-1,-1,30,32,34,36,38,40,42,44,46,48,50,52,54,56,58,60,62,64,66,68,-1,70,72,74,76,78,-1,80,-1,82,84,86,88,90,-1,92,-1,-1,-1,-1,-1,-1,-1,-1,-1,-1,-1,-1,-1,-1,-1,-1,-1,-1,-1,-1,-1,-1,-1,-1,-1,-1,-1,-1,-1,-1,-1,-1,-1,-1,-1,-1,-1,-1,-1,-1],"split_conditions":[1.82884E5,1E0,3.6302E5,8.9E1,2E0,8.3E1,5.80952E5,4.3422288E-1,4.5088E4,1.77893E5,1.57834E5,2E0,2.73142E5,1E0,6.26095E5,3.03675E-1,-5.5681325E-2,1.7E1,4.9E1,5.021E3,6.2E1,1E0,3.60485E5,5E0,3.43233E5,7.7E1,2E0,6.1E1,1E0,1.72909E5,1.67857E5,2.1E1,6E1,9.4E1,5.7E1,4E0,3E0,4.394493E-1,6.8E1,1.85424E5,6.9E1,1.89E2,2.68148E5,4.3926513E-1,9.9E1,4.3340003E-1,3.98108E5,5.35887E5,5.78518E5,2E0,5E0,4.3259102E-1,2E0,-2.8357422E-1,-1.5397325E-1,-2.2324055E-1,-1.4744768E-1,-1.8702307E-1,2.7362378E-2,-1.7582323E-1,-3.152967E-1,-1.058623E-1,-3.4400454E-1,-3.2910204E-1,-3.5301661E-1,-2.732983E-1,-1.0024624E-1,-3.5256186E-1,-3.104058E-1,-2.8561363E-1,2.3409735E-1,2.7307418E-1,4.4058833E-1,1.5773238E-1,-4.2950153E-2,-1.9534256E-1,2.5589442E-1,1.9441654E-1,5.087988E-1,-5.864471E-2,2.2011206E-1,3.0520963E-2,3.0668697E-1,-2.2154534E-1,-4.274723E-2,-3.280055E-1,-1.441268E-1,3.2939723E-1,2.1584958E-1,-7.9395875E-2,-3.5414046E-1,-2.2685343E-1,-3.592604E-1],"split_indices":[0,2,0,1,2,1,0,0,0,0,0,2,0,2,0,0,0,1,1,0,1,2,0,2,0,1,2,1,2,0,0,1,1,1,1,2,2,0,1,0,1,1,0,0,1,0,0,0,0,2,2,0,2,0,0,0,0,0,0,0,0,0,0,0,0,0,0,0,0,0,0,0,0,0,0,0,0,0,0,0,0,0,0,0,0,0,0,0,0,0,0,0,0],"split_type":[0,0,0,0,0,0,0,0,0,0,0,0,0,0,0,0,0,0,0,0,0,0,0,0,0,0,0,0,0,0,0,0,0,0,0,0,0,0,0,0,0,0,0,0,0,0,0,0,0,0,0,0,0,0,0,0,0,0,0,0,0,0,0,0,0,0,0,0,0,0,0,0,0,0,0,0,0,0,0,0,0,0,0,0,0,0,0,0,0,0,0,0,0],"sum_hessian":[1.1739763E5,2.9521904E4,8.787573E4,1.5412821E3,2.7980623E4,3.8961367E4,4.8914355E4,1.5380056E3,3.276535E0,1.0214582E4,1.7766041E4,1.9316432E4,1.9644938E4,3.631248E4,1.2601877E4,2.1843567E0,1.0921783E0,9.745129E3,4.6945352E2,1.5671459E4,2.0945813E3,1.4326851E2,1.9173162E4,1.0597441E4,9.047495E3,2.1491816E3,3.4163297E4,1.0311091E4,2.2907861E3,9.6636194E2,8.778767E3,3.8130106E2,8.815249E1,5.997197E2,1.5071739E4,1.4008186E3,6.9376263E2,1.7995678E1,1.25272835E2,1.8811172E4,3.6199155E2,5.851379E3,4.746062E3,7.5230405E3,1.5244551E3,2.1384836E3,1.0698161E1,1.5700066E4,1.846323E4,8.495353E3,1.8157391E3,7.599867E1,2.2147874E3,9.2706946E2,3.929248E1,8.167565E3,6.112015E2,2.950137E1,3.5179968E2,4.4916973E1,4.3235516E1,1.7423389E2,4.2548584E2,8.899397E3,6.1723423E3,1.2671466E3,1.33672E2,4.872129E2,2.0654976E2,1.2384592E2,1.4269192E0,4.922159E2,1.8318955E4,2.7207248E2,8.991907E1,5.4955835E3,3.5579553E2,4.4417E3,3.0436224E2,4.5934332E2,1.0651117E3,1.1770089E0,9.521152E0,1.2187393E4,3.5126746E3,1.813141E4,3.3182135E2,6.085654E3,2.4096985E3,1.173055E3,6.4268414E2,3.1984384E2,1.8949435E3],"tree_param":{"num_deleted":"0","num_feature":"3","num_nodes":"93","size_leaf_vector":"1"}},{"base_weights":[-5.2453373E-2,-7.3365843E-1,1.675425E-1,1.2727282E0,-8.4357077E-1,8.434362E-1,-3.72901E-1,2.87968E-1,1.2769561E0,-5.8785605E-1,-1.0048754E0,1.2450681E0,4.8125333E-1,-6.22674E-1,3.0360726E-1,3.8347262E-1,5.62765E-1,-6.3012964E-1,-2.8219935E-1,-1.0281906E0,-8.193016E-1,1.2732556E0,1.8684652E-1,3.9216387E-3,1.1049051E0,1.267953E0,-7.3840535E-1,5.890528E-1,-7.76312E-1,2.6667175E-1,-4.6409033E-2,-5.8517426E-1,-7.448331E-1,-5.8752155E-1,-1.5271196E-1,-7.981232E-1,-1.0376532E0,-7.159311E-1,-1.0276074E0,4.9184665E-1,1.3014352E0,-3.7985763E-1,2.4714382E-1,-4.3886676E-1,5.097194E-1,1.295825E0,3.2206842E-1,1.2701727E0,6.443048E-1,-4.8261267E-1,-9.8161143E-1,7.454065E-1,-6.393826E-1,1.0973973E-1,-1.081047E0,-2.0334995E-1,-1.1686153E-1,-2.7371082E-1,-1.8991956E-1,-2.8508037E-1,-1.4691937E-1,-4.5127333E-3,-2.1797095E-1,-1.0233962E-1,-3.3607697E-1,-2.9890126E-1,-3.294215E-1,-5.5095583E-2,-2.3433219E-1,-3.2924783E-1,-2.5740868E-1,2.729916E-1,-8.288115E-2,-9.869114E-5,3.9046136E-1,3.4704953E-1,-2.137252E-1,1.10368714E-1,-1.197289E-2,1.4315306E-1,-1.6728115E-1,1.9115235E-1,2.8096937E-2,3.336023E-1,3.8921762E-1,-8.215474E-2,1.6728267E-1,3.876438E-1,3.6770895E-1,-2.1667868E-2,2.4253395E-1,-2.4444157E-1,-8.124422E-2,-2.6826465E-1,-3.2777083E-1,2.7380356E-1,1.4825508E-1,-8.1474416E-2,-2.8964585E-1,3.6550936E-1,-1.8366035E-2,-2.740869E-1,-3.4265286E-1],"categories":[],"categories_nodes":[],"categories_segments":[],"categories_sizes":[],"default_left":[0,0,0,0,0,0,0,0,0,0,0,0,0,0,0,0,0,0,0,0,0,0,0,0,0,0,0,0,0,0,0,0,0,0,0,0,0,0,0,0,0,0,0,0,0,0,0,0,0,0,0,0,0,0,0,0,0,0,0,0,0,0,0,0,0,0,0,0,0,0,0,0,0,0,0,0,0,0,0,0,0,0,0,0,0,0,0,0,0,0,0,0,0,0,0,0,0,0,0,0,0,0,0],"id":3,"left_children":[1,3,5,7,9,11,13,-1,15,17,19,21,23,25,27,-1,29,31,33,35,37,39,41,43,45,47,49,51,53,-1,-1,55,57,59,61,63,65,67,69,71,73,75,77,79,81,83,85,87,89,91,93,95,97,99,101,-1,-1,-1,-1,-1,-1,-1,-1,-1,-1,-1,-1,-1,-1,-1,-1,-1,-1,-1,-1,-1,-1,-1,-1,-1,-1,-1,-1,-1,-1,-1,-1,-1,-1,-1,-1,-1,-1,-1,-1,-1,-1,-1,-1,-1,-1,-1,-1],"loss_changes":[1.5029036E4,5.3998145E3,2.7690432E4,4.5629883E-1,9.5678516E2,4.8989062E3,7.1179966E3,0E0,4.3041992E-1,1.1585742E2,6.073242E1,4.7614258E2,5.272767E3,6.732552E3,3.5020896E3,0E0,1.0820351E0,4.024048E1,4.3118896E1,2.6685547E1,3.3572876E1,3.4190234E2,1.42930355E1,2.2474893E3,1.1473066E3,1.638916E0,1.8030938E3,1.7262612E3,6.414623E2,0E0,0E0,1.02552E2,4.0944824E1,1.1067657E1,6.072559E1,7.37569E1,2.9200195E1,3.6913635E1,5.29364E0,1.7466919E2,2.0019531E0,2.1447344E1,1.305394E1,5.822722E2,2.483451E2,3.359375E-1,2.1167285E2,1.4355469E-1,1.0374587E0,9.9407983E2,1.4312695E2,3.345161E2,1.2148227E2,1.1545301E2,1.7045654E1,0E0,0E0,0E0,0E0,0E0,0E0,0E0,0E0,0E0,0E0,0E0,0E0,0E0,0E0,0E0,0E0,0E0,0E0,0E0,0E0,0E0,0E0,0E0,0E0,0E0,0E0,0E0,0E0,0E0,0E0,0E0,0E0,0E0,0E0,0E0,0E0,0E0,0E0,0E0,0E0,0E0,0E0,0E0,0E0,0E0,0E0,0E0,0E0],"parents":[2147483647,0,0,1,1,2,2,3,3,4,4,5,5,6,6,8,8,9,9,10,10,11,11,12,12,13,13,14,14,16,16,17,17,18,18,19,19,20,20,21,21,22,22,23,23,24,24,25,25,26,26,27,27,28,28,31,31,32,32,33,33,34,34,35,35,36,36,37,37,38,38,39,39,40,40,41,41,42,42,43,43,44,44,45,45,46,46,47,47,48,48,49,49,50,50,51,51,52,52,53,53,54,54],"right_children":[2,4,6,8,10,12,14,-1,16,18,20,22,24,26,28,-1,30,32,34,36,38,40,42,44,46,48,50,52,54,-1,-1,56,58,60,62,64,66,68,70,72,74,76,78,80,82,84,86,88,90,92,94,96,98,100,102,-1,-1,-1,-1,-1,-1,-1,-1,-1,-1,-1,-1,-1,-1,-1,-1,-1,-1,-1,-1,-1,-1,-1,-1,-1,-1,-1,-1,-1,-1,-1,-1,-1,-1,-1,-1,-1,-1,-1,-1,-1,-1,-1,-1,-1,-1,-1,-1],"split_conditions":[1.82884E5,1E0,3.6302E5,7.534E3,2E0,8.3E1,5.80952E5,2.87968E-1,8.9E1,1.67857E5,1.60355E5,3.60485E5,2.73142E5,1E0,6.23571E5,3.8347262E-1,4.5088E4,1.25265E5,2.6E1,5.021E3,6.1E1,1.85424E5,2.4E1,5E0,3.43233E5,8.4E1,2E0,7.1E1,2E0,2.6667175E-1,-4.6409033E-2,8.0188E4,1.45334E5,1.70367E5,4.8E1,5E0,5.7E1,1.62889E5,3E0,3.6E1,2E0,1E0,6.5E1,2.02944E5,2.55544E5,3E0,4E0,2.1E1,9.3E1,2.6E1,5.7E1,4E1,9.3E1,1E0,3E0,-2.0334995E-1,-1.1686153E-1,-2.7371082E-1,-1.8991956E-1,-2.8508037E-1,-1.4691937E-1,-4.5127333E-3,-2.1797095E-1,-1.0233962E-1,-3.3607697E-1,-2.9890126E-1,-3.294215E-1,-5.5095583E-2,-2.3433219E-1,-3.2924783E-1,-2.5740868E-1,2.729916E-1,-8.288115E-2,-9.869114E-5,3.9046136E-1,3.4704953E-1,-2.137252E-1,1.10368714E-1,-1.197289E-2,1.4315306E-1,-1.6728115E-1,1.9115235E-1,2.8096937E-2,3.336023E-1,3.8921762E-1,-8.215474E-2,1.6728267E-1,3.876438E-1,3.6770895E-1,-2.1667868E-2,2.4253395E-1,-2.4444157E-1,-8.124422E-2,-2.6826465E-1,-3.2777083E-1,2.7380356E-1,1.4825508E-1,-8.1474416E-2,-2.8964585E-1,3.6550936E-1,-1.8366035E-2,-2.740869E-1,-3.4265286E-1],"split_indices":[0,2,0,0,2,1,0,0,1,0,0,0,0,2,0,0,0,0,1,0,1,0,1,2,0,1,2,1,2,0,0,0,0,0,1,2,1,0,2,1,2,2,1,0,0,2,2,1,1,1,1,1,1,2,2,0,0,0,0,0,0,0,0,0,0,0,0,0,0,0,0,0,0,0,0,0,0,0,0,0,0,0,0,0,0,0,0,0,0,0,0,0,0,0,0,0,0,0,0,0,0,0,0],"split_type":[0,0,0,0,0,0,0,0,0,0,0,0,0,0,0,0,0,0,0,0,0,0,0,0,0,0,0,0,0,0,0,0,0,0,0,0,0,0,0,0,0,0,0,0,0,0,0,0,0,0,0,0,0,0,0,0,0,0,0,0,0,0,0,0,0,0,0,0,0,0,0,0,0,0,0,0,0,0,0,0,0,0,0,0,0,0,0,0,0,0,0,0,0,0,0,0,0,0,0,0,0,0,0],"sum_hessian":[1.0028381E5,2.4480127E4,7.580369E4,1.270853E3,2.3209273E4,3.368088E4,4.212281E4,1.9986881E1,1.2508662E3,8.97923E3,1.4230043E4,1.59695205E4,1.771136E4,3.0764393E4,1.1358415E4,1.2478296E3,3.03654E0,7.88732E3,1.0919104E3,1.2637717E4,1.5923256E3,1.5554984E4,4.1453568E2,1.0033166E4,7.678195E3,1.7739863E3,2.8990406E4,8.984164E3,2.3742505E3,1.9232967E0,1.1132433E0,5.6708594E3,2.2164604E3,3.2412024E2,7.6779016E2,5.026209E2,1.2135097E4,1.0671805E3,5.2514496E2,5.4207135E2,1.5012913E4,3.9355278E1,3.751804E2,5.349877E3,4.6832886E3,6.1722407E3,1.505954E3,1.7666617E3,7.3245134E0,1.4131035E4,1.4859371E4,7.970129E3,1.01403485E3,6.0775977E2,1.7664908E3,3.846554E3,1.8243057E3,8.84085E2,1.3323754E3,6.6972626E1,2.5714758E2,6.200623E2,1.4772784E2,2.086627E2,2.9395822E2,7.217242E3,4.917854E3,1.1683466E2,9.5034595E2,3.6801135E2,1.5713365E2,3.5088312E2,1.9118823E2,1.1821064E0,1.5011731E4,6.5607667E0,3.2794514E1,2.6389056E2,1.11289825E2,6.135313E2,4.7363457E3,3.5846494E3,1.098639E3,5.817986E1,6.114061E3,4.2656973E2,1.0793843E3,1.1636921E3,6.0296967E2,1.4695281E0,5.8549857E0,5.5006973E3,8.630338E3,8.317304E3,6.542068E3,4.782896E3,3.1872332E3,4.7741138E2,5.3662354E2,8.038164E1,5.273781E2,4.7673294E2,1.2897579E3],"tree_param":{"num_deleted":"0","num_feature":"3","num_nodes":"103","size_leaf_vector":"1"}},{"base_weights":[-4.4717826E-2,-6.588278E-1,1.378556E-1,1.1656452E0,-7.569312E-1,6.98802E-1,-3.1405795E-1,2.8426862E-1,1.1747185E0,-5.000408E-1,-9.323907E-1,1.0659056E0,3.8691607E-1,2.1878304E-3,-6.985658E-1,3.528697E-1,4.8534757E-1,-7.703264E-1,-4.8351756E-1,-8.780009E-1,-1.008841E0,5.3555343E-2,1.1680993E0,-3.719183E-2,9.3867326E-1,-3.311033E-1,3.9950976E-1,-9.0976673E-1,-1.8586114E-1,2.3810242E-1,-3.871374E-2,-1.0732634E0,-7.296163E-1,-7.4146825E-1,-4.676537E-1,-9.097265E-1,-6.2245363E-1,-7.23743E-1,-1.0342275E0,4.8526433E-1,-3.684074E-1,1.2038231E0,1.3267002E-1,-4.492623E-1,2.6404426E-1,1.1320751E0,2.2961032E-1,1.1672485E0,-5.151404E-1,2.5592122E0,2.0678717E-1,-7.989088E-1,-1.0049204E0,1.4796737E-1,-9.942221E-1,-4.6859317E-2,-3.275001E-1,-2.2571261E-1,-5.4108467E-2,-3.095065E-1,2.5179628E-1,-7.9608165E-2,-1.4888783E-1,-2.9583E-1,-2.5828218E-1,-1.16288565E-1,-2.8192863E-1,-2.7912049E-2,-3.0512446E-1,-2.9605094E-1,-3.1286028E-1,-7.2763707E-3,3.1118184E-1,-1.3004455E-1,1.9673409E-1,-8.266344E-5,3.6118293E-1,-8.502875E-2,5.7879817E-2,2.445263E-1,-1.5424798E-1,1.304369E-1,-3.0526578E-1,1.663669E-1,3.5891563E-1,3.0740324E-2,2.9408443E-1,3.512137E-1,3.7895605E-2,-1.7545626E-1,-7.600064E-2,1.4689496E-1,1.0658392E0,-1.7043371E-1,1.7356423E-1,-2.2239166E-1,-2.8930998E-1,-2.8593555E-1,-3.213339E-1,9.7669095E-2,-2.2811161E-1,-1.9222997E-1,-3.2109284E-1],"categories":[],"categories_nodes":[],"categories_segments":[],"categories_sizes":[],"default_left":[0,0,0,0,0,0,0,0,0,0,0,0,0,0,0,0,0,0,0,0,0,0,0,0,0,0,0,0,0,0,0,0,0,0,0,0,0,0,0,0,0,0,0,0,0,0,0,0,0,0,0,0,0,0,0,0,0,0,0,0,0,0,0,0,0,0,0,0,0,0,0,0,0,0,0,0,0,0,0,0,0,0,0,0,0,0,0,0,0,0,0,0,0,0,0,0,0,0,0,0,0,0,0],"id":4,"left_children":[1,3,5,7,9,11,13,-1,15,17,19,21,23,25,27,-1,29,31,33,35,37,39,41,43,45,47,49,51,53,-1,-1,55,57,59,61,63,65,67,69,71,73,75,77,79,81,83,85,87,89,91,93,95,97,99,101,-1,-1,-1,-1,-1,-1,-1,-1,-1,-1,-1,-1,-1,-1,-1,-1,-1,-1,-1,-1,-1,-1,-1,-1,-1,-1,-1,-1,-1,-1,-1,-1,-1,-1,-1,-1,-1,-1,-1,-1,-1,-1,-1,-1,-1,-1,-1,-1],"loss_changes":[9.598204E3,3.5122744E3,1.6728246E4,8.684082E-1,8.387051E2,3.370621E3,4.444043E3,0E0,4.2822266E-1,3.338037E1,4.510742E1,1.3990342E3,3.7254219E3,2.6558132E3,1.7857876E3,0E0,8.222717E-1,4.565857E0,2.8809448E1,5.1893555E1,3.2480957E1,2.2625348E2,4.5420312E2,1.1175736E3,9.485537E2,3.0081018E3,3.8074446E3,1.22416016E2,1.2990115E3,0E0,0E0,6.608124E-1,4.6828003E0,1.8946469E2,3.8770996E1,2.0590332E1,5.3118134E1,6.997464E1,6.9628906E-1,1.7268108E2,4.2151085E1,1.7128906E0,1.035538E1,3.123947E2,1.1385934E3,2.0122754E2,1.4153574E2,4.154785E0,1.7714893E2,1.539311E3,2.4202993E3,5.0753662E1,2.0518555E1,5.499088E2,3.715039E1,0E0,0E0,0E0,0E0,0E0,0E0,0E0,0E0,0E0,0E0,0E0,0E0,0E0,0E0,0E0,0E0,0E0,0E0,0E0,0E0,0E0,0E0,0E0,0E0,0E0,0E0,0E0,0E0,0E0,0E0,0E0,0E0,0E0,0E0,0E0,0E0,0E0,0E0,0E0,0E0,0E0,0E0,0E0,0E0,0E0,0E0,0E0,0E0],"parents":[2147483647,0,0,1,1,2,2,3,3,4,4,5,5,6,6,8,8,9,9,10,10,11,11,12,12,13,13,14,14,16,16,17,17,18,18,19,19,20,20,21,21,22,22,23,23,24,24,25,25,26,26,27,27,28,28,31,31,32,32,33,33,34,34,35,35,36,36,37,37,38,38,39,39,40,40,41,41,42,42,43,43,44,44,45,45,46,46,47,47,48,48,49,49,50,50,51,51,52,52,53,53,54,54],"right_children":[2,4,6,8,10,12,14,-1,16,18,20,22,24,26,28,-1,30,32,34,36,38,40,42,44,46,48,50,52,54,-1,-1,56,58,60,62,64,66,68,70,72,74,76,78,80,82,84,86,88,90,92,94,96,98,100,102,-1,-1,-1,-1,-1,-1,-1,-1,-1,-1,-1,-1,-1,-1,-1,-1,-1,-1,-1,-1,-1,-1,-1,-1,-1,-1,-1,-1,-1,-1,-1,-1,-1,-1,-1,-1,-1,-1,-1,-1,-1,-1,-1,-1,-1,-1,-1,-1],"split_conditions":[1.77893E5,1E0,3.6302E5,1.0036E4,2E0,8.3E1,2E0,2.8426862E-1,8.9E1,1.5E1,5.7E1,1.85424E5,2.68148E5,5.35887E5,5.78518E5,3.528697E-1,4.5088E4,1E1,7.534E3,1.57834E5,5.021E3,3.6E1,3.60485E5,4E0,3.43233E5,1E0,5.40901E5,5E1,6.23571E5,2.3810242E-1,-3.871374E-2,1.0036E4,1.72909E5,3.9E1,3.2587E4,7.2677E4,1.70367E5,1.04E2,6.1E1,2E0,4E0,2E0,2E0,1.97967E5,2.63107E5,2.73142E5,7E0,8.8E1,4.98316E5,5.384E5,5.80952E5,5.28371E5,7.5E1,8.4E1,6.26095E5,-4.6859317E-2,-3.275001E-1,-2.2571261E-1,-5.4108467E-2,-3.095065E-1,2.5179628E-1,-7.9608165E-2,-1.4888783E-1,-2.9583E-1,-2.5828218E-1,-1.16288565E-1,-2.8192863E-1,-2.7912049E-2,-3.0512446E-1,-2.9605094E-1,-3.1286028E-1,-7.2763707E-3,3.1118184E-1,-1.3004455E-1,1.9673409E-1,-8.266344E-5,3.6118293E-1,-8.502875E-2,5.7879817E-2,2.445263E-1,-1.5424798E-1,1.304369E-1,-3.0526578E-1,1.663669E-1,3.5891563E-1,3.0740324E-2,2.9408443E-1,3.512137E-1,3.7895605E-2,-1.7545626E-1,-7.600064E-2,1.4689496E-1,1.0658392E0,-1.7043371E-1,1.7356423E-1,-2.2239166E-1,-2.8930998E-1,-2.8593555E-1,-3.213339E-1,9.7669095E-2,-2.2811161E-1,-1.9222997E-1,-3.2109284E-1],"split_indices":[0,2,0,0,2,1,2,0,1,1,1,0,0,0,0,0,0,1,0,0,0,1,0,2,0,2,0,1,0,0,0,0,0,1,0,0,0,1,1,2,2,2,2,0,0,0,2,1,0,0,0,0,1,1,0,0,0,0,0,0,0,0,0,0,0,0,0,0,0,0,0,0,0,0,0,0,0,0,0,0,0,0,0,0,0,0,0,0,0,0,0,0,0,0,0,0,0,0,0,0,0,0,0],"split_type":[0,0,0,0,0,0,0,0,0,0,0,0,0,0,0,0,0,0,0,0,0,0,0,0,0,0,0,0,0,0,0,0,0,0,0,0,0,0,0,0,0,0,0,0,0,0,0,0,0,0,0,0,0,0,0,0,0,0,0,0,0,0,0,0,0,0,0,0,0,0,0,0,0,0,0,0,0,0,0,0,0,0,0,0,0,0,0,0,0,0,0,0,0,0,0,0,0,0,0,0,0,0,0],"sum_hessian":[8.56046E4,1.961714E4,6.598747E4,1.0004495E3,1.8616691E4,2.9441764E4,3.6545703E4,4.4172096E1,9.5627747E2,7.556729E3,1.1059962E4,1.3522619E4,1.5919144E4,2.0053398E4,1.6492305E4,9.534774E2,2.8000078E0,4.3272104E2,7.124008E3,6.4696724E3,4.5902896E3,1.2400428E3,1.2282576E4,9.001261E3,6.917883E3,1.0905527E4,9.14787E3,1.1680092E4,4.8122124E3,1.6700886E0,1.1299193E0,4.8257534E1,3.844635E2,4.1009045E2,6.7139175E3,5.7529033E3,7.1676904E2,3.777334E2,4.212556E3,6.128686E2,6.2717426E2,1.1872785E4,4.097913E2,3.8011099E3,5.2001514E3,5.4348843E3,1.4829987E3,1.1923751E3,9.713152E3,7.4843396E2,8.399436E3,5.399199E3,6.280892E3,3.406322E3,1.4058905E3,1.136019E0,4.7121517E1,3.688115E2,1.5651994E1,3.4677307E2,6.331737E1,8.338993E2,5.880018E3,2.2349358E3,3.5179673E3,4.1320038E2,3.0356866E2,1.20330246E2,2.5740314E2,6.6733856E2,3.5452175E3,3.1919705E2,2.936715E2,5.9024805E2,3.6926178E1,1.1820838E0,1.1871604E4,5.137262E1,3.5841867E2,1.8501656E2,3.6160933E3,4.5893755E3,6.1077545E2,5.455318E2,4.8893525E3,1.269173E3,2.1382571E2,1.1882964E3,4.0788074E0,7.669637E3,2.0435151E3,2.4325177E2,5.051822E2,2.7230222E3,5.676414E3,4.0089753E3,1.3902238E3,3.5320913E3,2.748801E3,2.8497815E3,5.565406E2,2.5070212E2,1.1551884E3],"tree_param":{"num_deleted":"0","num_feature":"3","num_nodes":"103","size_leaf_vector":"1"}},{"base_weights":[-3.886658E-2,-5.728801E-1,1.14058964E-1,1.0914905E0,-6.563824E-1,5.991598E-1,-2.6491097E-1,2.51647E-1,1.1026561E0,-3.9853182E-1,-8.5501164E-1,9.818201E-1,3.1190103E-1,-4.242174E-3,-6.132819E-1,3.3133328E-1,4.23259E-1,-5.463602E-1,-3.6803207E-1,-7.903419E-1,-9.494255E-1,4.174248E-2,1.0972288E0,-6.2234816E-3,8.6248666E-1,1.051089E0,-8.129374E-2,-8.278274E-1,-1.5507826E-1,2.1474788E-1,-3.2315005E-2,-1.843998E-1,-6.104504E-1,-3.587488E-1,-9.90288E-1,-8.2727915E-1,-5.1648253E-1,-6.282906E-1,-9.806136E-1,3.521798E-1,-2.9683948E-1,1.1418175E0,9.28778E-2,-3.5954052E-1,2.4169534E-1,1.1318467E0,1.6455108E-1,1.107734E0,1.1607518E-1,-3.12125E-1,4.4135523E-1,-7.177253E-1,-9.577427E-1,1.05097905E-1,-9.188237E-1,-1.4724304E-1,7.902178E-1,-2.2680718E-1,-1.6980025E-1,-1.1785049E-1,-5.4658893E-2,-1.0588678E-1,-3.2752734E-1,-2.3548283E-1,-2.9151517E-1,-1.7699753E-1,1.4386629E-1,-4.2135112E-2,-3.046601E-1,-3.0127963E-1,-2.8538138E-1,-2.4136305E-3,2.3042129E-1,-6.412279E-2,-2.4497269E-1,-6.923303E-5,3.4258932E-1,3.4201056E-1,2.0528741E-2,1.5291975E-1,-1.2282377E-1,4.8245795E-2,2.6491737E-1,2.5805053E-1,3.402934E-1,-7.439627E-2,1.0120723E-1,3.3345628E-1,1.6413677E-1,-1.1194478E0,3.1194556E-1,-1.8881479E-1,-4.8969362E-2,1.6376518E-1,-1.307757E-1,-1.9806667E-1,-2.6838225E-1,-2.6810473E-1,-3.0702162E-1,1.09577976E-1,-8.8637695E-2,-1.4995115E-1,-3.0795524E-1],"categories":[],"categories_nodes":[],"categories_segments":[],"categories_sizes":[],"default_left":[0,0,0,0,0,0,0,0,0,0,0,0,0,0,0,0,0,0,0,0,0,0,0,0,0,0,0,0,0,0,0,0,0,0,0,0,0,0,0,0,0,0,0,0,0,0,0,0,0,0,0,0,0,0,0,0,0,0,0,0,0,0,0,0,0,0,0,0,0,0,0,0,0,0,0,0,0,0,0,0,0,0,0,0,0,0,0,0,0,0,0,0,0,0,0,0,0,0,0,0,0,0,0],"id":5,"left_children":[1,3,5,7,9,11,13,-1,15,17,19,21,23,25,27,-1,29,31,33,35,37,39,41,43,45,47,49,51,53,-1,-1,55,57,59,61,63,65,67,69,71,73,75,77,79,81,83,85,87,89,91,93,95,97,99,101,-1,-1,-1,-1,-1,-1,-1,-1,-1,-1,-1,-1,-1,-1,-1,-1,-1,-1,-1,-1,-1,-1,-1,-1,-1,-1,-1,-1,-1,-1,-1,-1,-1,-1,-1,-1,-1,-1,-1,-1,-1,-1,-1,-1,-1,-1,-1,-1],"loss_changes":[6.0236235E3,2.2828208E3,1.054155E4,1.2892456E0,8.005176E2,2.7641436E3,2.9233706E3,0E0,4.4177246E-1,3.0484985E1,5.3174316E1,1.169874E3,2.5164036E3,1.497505E3,1.3543574E3,0E0,6.341881E-1,2.6842712E1,3.2253174E1,5.2654297E1,3.5292236E1,1.24144066E2,4.2999805E2,7.97767E2,9.8888745E2,6.624048E1,2.0707417E3,1.3354102E2,8.734709E2,0E0,0E0,1.5348158E2,5.95697E0,3.340973E1,4.944069E0,2.7501953E1,4.6140213E1,6.0338844E1,1.3112793E0,9.230688E1,2.422736E1,1.5439453E0,1.0402003E1,1.6301794E2,2.7747516E2,1.565918E0,1.0460985E2,1.9001465E0,2.6225363E2,5.62291E2,4.8242993E2,5.1113525E1,1.7180176E1,3.4184576E2,4.988507E1,0E0,0E0,0E0,0E0,0E0,0E0,0E0,0E0,0E0,0E0,0E0,0E0,0E0,0E0,0E0,0E0,0E0,0E0,0E0,0E0,0E0,0E0,0E0,0E0,0E0,0E0,0E0,0E0,0E0,0E0,0E0,0E0,0E0,0E0,0E0,0E0,0E0,0E0,0E0,0E0,0E0,0E0,0E0,0E0,0E0,0E0,0E0,0E0],"parents":[2147483647,0,0,1,1,2,2,3,3,4,4,5,5,6,6,8,8,9,9,10,10,11,11,12,12,13,13,14,14,16,16,17,17,18,18,19,19,20,20,21,21,22,22,23,23,24,24,25,25,26,26,27,27,28,28,31,31,32,32,33,33,34,34,35,35,36,36,37,37,38,38,39,39,40,40,41,41,42,42,43,43,44,44,45,45,46,46,47,47,48,48,49,49,50,50,51,51,52,52,53,53,54,54],"right_children":[2,4,6,8,10,12,14,-1,16,18,20,22,24,26,28,-1,30,32,34,36,38,40,42,44,46,48,50,52,54,-1,-1,56,58,60,62,64,66,68,70,72,74,76,78,80,82,84,86,88,90,92,94,96,98,100,102,-1,-1,-1,-1,-1,-1,-1,-1,-1,-1,-1,-1,-1,-1,-1,-1,-1,-1,-1,-1,-1,-1,-1,-1,-1,-1,-1,-1,-1,-1,-1,-1,-1,-1,-1,-1,-1,-1,-1,-1,-1,-1,-1,-1,-1,-1,-1,-1],"split_conditions":[1.77893E5,1E0,3.6302E5,1.0036E4,2E0,8.3E1,2E0,2.51647E-1,8.9E1,2E1,5.7E1,1.85424E5,2.73142E5,1E0,5.78518E5,3.3133328E-1,4.5088E4,3.2587E4,8.4E1,1.57834E5,5.021E3,3.7E1,3.60485E5,4E0,3.43233E5,5.80952E5,5.80952E5,5.4E1,6.23571E5,2.1474788E-1,-3.2315005E-2,3.0061E4,1.4E1,1.57834E5,1.0036E4,1.25265E5,5.5E1,5E0,8.7695E4,2E0,6.5E1,2E0,1E0,1.97967E5,1.89E2,3E0,9.8E1,7.7E1,6.23571E5,2.5E1,5.3E1,5.28371E5,7.5E1,5.8E1,6.26095E5,-1.4724304E-1,7.902178E-1,-2.2680718E-1,-1.6980025E-1,-1.1785049E-1,-5.4658893E-2,-1.0588678E-1,-3.2752734E-1,-2.3548283E-1,-2.9151517E-1,-1.7699753E-1,1.4386629E-1,-4.2135112E-2,-3.046601E-1,-3.0127963E-1,-2.8538138E-1,-2.4136305E-3,2.3042129E-1,-6.412279E-2,-2.4497269E-1,-6.923303E-5,3.4258932E-1,3.4201056E-1,2.0528741E-2,1.5291975E-1,-1.2282377E-1,4.8245795E-2,2.6491737E-1,2.5805053E-1,3.402934E-1,-7.439627E-2,1.0120723E-1,3.3345628E-1,1.6413677E-1,-1.1194478E0,3.1194556E-1,-1.8881479E-1,-4.8969362E-2,1.6376518E-1,-1.307757E-1,-1.9806667E-1,-2.6838225E-1,-2.6810473E-1,-3.0702162E-1,1.09577976E-1,-8.8637695E-2,-1.4995115E-1,-3.0795524E-1],"split_indices":[0,2,0,0,2,1,2,0,1,1,1,0,0,2,0,0,0,0,1,0,0,1,0,2,0,0,0,1,0,0,0,0,1,0,0,0,1,2,0,2,1,2,2,0,1,2,1,1,0,1,1,0,1,1,0,0,0,0,0,0,0,0,0,0,0,0,0,0,0,0,0,0,0,0,0,0,0,0,0,0,0,0,0,0,0,0,0,0,0,0,0,0,0,0,0,0,0,0,0,0,0,0,0],"split_type":[0,0,0,0,0,0,0,0,0,0,0,0,0,0,0,0,0,0,0,0,0,0,0,0,0,0,0,0,0,0,0,0,0,0,0,0,0,0,0,0,0,0,0,0,0,0,0,0,0,0,0,0,0,0,0,0,0,0,0,0,0,0,0,0,0,0,0,0,0,0,0,0,0,0,0,0,0,0,0,0,0,0,0,0,0,0,0,0,0,0,0,0,0,0,0,0,0,0,0,0,0,0,0],"sum_hessian":[7.3758984E4,1.6419525E4,5.7339465E4,7.8384406E2,1.5635682E4,2.514807E4,3.2191393E4,3.639432E1,7.474497E2,6.8049023E3,8.830779E3,1.0782359E4,1.4365711E4,1.8414066E4,1.3777325E4,7.4486365E2,2.5860693E0,1.1609608E3,5.6439414E3,5.2465063E3,3.5842727E3,1.1791097E3,9.60325E3,9.105567E3,5.2601445E3,1.2521019E3,1.7161965E4,9.383068E3,4.3942563E3,1.4428991E0,1.1431701E0,1.7522499E2,9.857358E2,5.562532E3,8.14095E1,4.6211943E3,6.2531213E2,3.1915567E2,3.265117E3,6.150999E2,5.640099E2,9.1949E3,4.0835004E2,3.754483E3,5.351084E3,3.7949187E3,1.4652257E3,1.1804059E3,7.1696E1,1.1904617E4,5.257347E3,5.0823467E3,4.300722E3,3.278329E3,1.1159274E3,1.5878812E2,1.6436878E1,2.2683553E2,7.5890027E2,4.6613604E3,9.01172E2,1.179617E1,6.9613335E1,3.5786782E3,1.0425157E3,5.827144E2,4.2597675E1,1.4183621E2,1.7731946E2,1.7894661E3,1.4756509E3,3.3013406E2,2.8496585E2,4.8748123E2,7.652861E1,1.182065E0,9.193718E3,8.275452E0,4.000746E2,2.032147E2,3.5512683E3,4.752982E3,5.98102E2,3.7265373E1,3.7576533E3,4.324375E2,1.0327882E3,1.1715096E3,8.896227E0,1.3292143E1,5.8403854E1,3.8014324E3,8.1031846E3,4.697956E3,5.593914E2,3.8390364E3,1.2433105E3,2.1843179E3,2.116404E3,1.9875209E3,1.2908082E3,2.293343E2,8.865931E2],"tree_param":{"num_deleted":"0","num_feature":"3","num_nodes":"103","size_leaf_vector":"1"}},{"base_weights":[-3.0670663E-2,-4.9001625E-1,9.639648E-2,1.033986E0,-5.5956435E-1,5.102246E-1,-2.161524E-1,7.384039E-1,1.0481025E0,-3.115674E-1,-7.7694654E-1,9.100419E-1,2.4953361E-1,-1.7108734E-3,-5.3040224E-1,6.199945E-1,2.9755378E-1,3.2340765E-1,9.522761E-1,-3.8273352E-1,-2.5466153E-1,-7.023077E-1,-8.9109844E-1,3.1129992E-2,1.0437676E0,-3.376684E-2,7.29455E-1,9.842735E-1,-6.2183864E-2,-7.452588E-1,-1.2610342E-1,7.9188484E-1,5.590285E-2,9.5935786E-1,3.7238443E-1,-2.6268306E-1,-5.196135E-1,5.0338393E-1,-3.0293342E-1,-8.569525E-1,-6.238826E-1,-5.3564066E-1,-9.294338E-1,3.0144536E-1,-1.957592E-1,1.1004007E0,6.670289E-2,6.291732E-2,-7.024718E-1,9.846624E-1,1.1802182E-1,1.04278E0,1.6151752E-1,-3.436165E-1,2.2646059E-1,-6.3325465E-1,-9.1432244E-1,4.78295E-2,-9.8793465E-1,1.6956079E-1,2.9793125E-1,-2.8350353E-1,1.5635678E-1,2.2800033E-1,2.9696813E-1,1.9494696E-1,-2.6986731E-2,-1.23530716E-1,1.9129694E-2,-1.4309257E-1,-2.37796E-1,-6.3230745E-2,2.0070884E-1,-4.4032536E-2,-1.1728872E-1,1.4759696E-2,-2.635626E-1,-1.957196E-1,-4.3000847E-2,-7.4378266E-3,-2.7652013E-1,-2.5511777E-1,-2.8325495E-1,-9.825002E-3,2.3310664E-1,-7.34565E-2,1.5806755E-1,-5.7969813E-5,3.3017576E-1,-4.788712E-2,4.6556614E-2,-6.8471074E-2,7.685794E-2,-2.622952E-1,1.3807032E-2,1.2690797E-1,3.2611114E-1,8.187208E-3,2.1359529E-1,3.264225E-1,2.8682306E-1,-5.197499E-1,2.853179E-1,-1.7363408E-1,-8.1916794E-2,4.3344977E-1,1.4971634E-2,-2.4711293E-1,-1.7083329E-1,-2.5609946E-1,-3.0140382E-1,5.077478E-2,-2.720032E-1,-2.9898188E-1,4.6611547E-1],"categories":[],"categories_nodes":[],"categories_segments":[],"categories_sizes":[],"default_left":[0,0,0,0,0,0,0,0,0,0,0,0,0,0,0,0,0,0,0,0,0,0,0,0,0,0,0,0,0,0,0,0,0,0,0,0,0,0,0,0,0,0,0,0,0,0,0,0,0,0,0,0,0,0,0,0,0,0,0,0,0,0,0,0,0,0,0,0,0,0,0,0,0,0,0,0,0,0,0,0,0,0,0,0,0,0,0,0,0,0,0,0,0,0,0,0,0,0,0,0,0,0,0,0,0,0,0,0,0,0,0,0,0,0,0],"id":6,"left_children":[1,3,5,7,9,11,13,15,17,19,21,23,25,27,29,31,-1,-1,33,35,37,39,41,43,45,47,49,51,53,55,57,59,61,63,65,67,69,71,73,75,77,79,81,83,85,87,89,91,93,95,97,99,101,103,105,107,109,111,113,-1,-1,-1,-1,-1,-1,-1,-1,-1,-1,-1,-1,-1,-1,-1,-1,-1,-1,-1,-1,-1,-1,-1,-1,-1,-1,-1,-1,-1,-1,-1,-1,-1,-1,-1,-1,-1,-1,-1,-1,-1,-1,-1,-1,-1,-1,-1,-1,-1,-1,-1,-1,-1,-1,-1,-1],"loss_changes":[3.7587131E3,1.4795735E3,6.5245337E3,1.7686157E0,7.1921826E2,2.2620908E3,1.936674E3,3.2014275E-1,6.342163E-1,2.5154846E1,5.9961914E1,1.0067949E3,1.7865627E3,1.01865857E3,1.0124878E3,2.273549E0,0E0,0E0,2.4394226E-1,4.5358612E1,1.2705008E2,5.1669434E1,3.7760742E1,6.950314E1,4.1133887E2,5.343063E2,7.6097656E2,4.735553E1,1.307701E3,1.4355127E2,6.0658997E2,2.7092457E-1,3.5936534E0,1.2425232E-1,4.9466017E-1,7.191024E1,1.4670349E1,2.4745163E1,4.476834E1,2.8325928E1,3.9093994E1,5.435148E1,2.1499023E0,8.2208374E1,2.199087E1,1.4326172E0,8.203827E0,4.063825E2,1.343164E2,1.9739014E2,7.7446075E1,2.5787964E0,1.0143285E2,1.3508905E2,1.7094669E3,5.5211304E1,1.575415E1,3.904639E2,1.652533E1,0E0,0E0,0E0,0E0,0E0,0E0,0E0,0E0,0E0,0E0,0E0,0E0,0E0,0E0,0E0,0E0,0E0,0E0,0E0,0E0,0E0,0E0,0E0,0E0,0E0,0E0,0E0,0E0,0E0,0E0,0E0,0E0,0E0,0E0,0E0,0E0,0E0,0E0,0E0,0E0,0E0,0E0,0E0,0E0,0E0,0E0,0E0,0E0,0E0,0E0,0E0,0E0,0E0,0E0,0E0,0E0],"parents":[2147483647,0,0,1,1,2,2,3,3,4,4,5,5,6,6,7,7,8,8,9,9,10,10,11,11,12,12,13,13,14,14,15,15,18,18,19,19,20,20,21,21,22,22,23,23,24,24,25,25,26,26,27,27,28,28,29,29,30,30,31,31,32,32,33,33,34,34,35,35,36,36,37,37,38,38,39,39,40,40,41,41,42,42,43,43,44,44,45,45,46,46,47,47,48,48,49,49,50,50,51,51,52,52,53,53,54,54,55,55,56,56,57,57,58,58],"right_children":[2,4,6,8,10,12,14,16,18,20,22,24,26,28,30,32,-1,-1,34,36,38,40,42,44,46,48,50,52,54,56,58,60,62,64,66,68,70,72,74,76,78,80,82,84,86,88,90,92,94,96,98,100,102,104,106,108,110,112,114,-1,-1,-1,-1,-1,-1,-1,-1,-1,-1,-1,-1,-1,-1,-1,-1,-1,-1,-1,-1,-1,-1,-1,-1,-1,-1,-1,-1,-1,-1,-1,-1,-1,-1,-1,-1,-1,-1,-1,-1,-1,-1,-1,-1,-1,-1,-1,-1,-1,-1,-1,-1,-1,-1,-1,-1],"split_conditions":[1.77893E5,1E0,3.6302E5,1.0036E4,2E0,8.3E1,2E0,3.1E1,2.3E1,8.0188E4,5.7E1,1.85424E5,2.68148E5,1E0,5.78518E5,2.2E1,2.9755378E-1,3.2340765E-1,8.9E1,4.5088E4,8.5215E4,7.2677E4,5.021E3,3.5E1,3.60485E5,2.60548E5,3.43233E5,5.80952E5,5.35887E5,5.7E1,6.26095E5,1.6E1,7.534E3,3.2587E4,4.5088E4,3.0061E4,4.7E1,2.1E1,1.25265E5,5.021E3,5.5E1,1.09E2,6.1E1,2E0,4E0,2E0,3.6E1,4E0,6E0,2.73142E5,7E0,2.1E1,6.23571E5,3.98108E5,5.43369E5,4.15642E5,8.3E1,5E0,1.51E2,1.6956079E-1,2.9793125E-1,-2.8350353E-1,1.5635678E-1,2.2800033E-1,2.9696813E-1,1.9494696E-1,-2.6986731E-2,-1.23530716E-1,1.9129694E-2,-1.4309257E-1,-2.37796E-1,-6.3230745E-2,2.0070884E-1,-4.4032536E-2,-1.1728872E-1,1.4759696E-2,-2.635626E-1,-1.957196E-1,-4.3000847E-2,-7.4378266E-3,-2.7652013E-1,-2.5511777E-1,-2.8325495E-1,-9.825002E-3,2.3310664E-1,-7.34565E-2,1.5806755E-1,-5.7969813E-5,3.3017576E-1,-4.788712E-2,4.6556614E-2,-6.8471074E-2,7.685794E-2,-2.622952E-1,1.3807032E-2,1.2690797E-1,3.2611114E-1,8.187208E-3,2.1359529E-1,3.264225E-1,2.8682306E-1,-5.197499E-1,2.853179E-1,-1.7363408E-1,-8.1916794E-2,4.3344977E-1,1.4971634E-2,-2.4711293E-1,-1.7083329E-1,-2.5609946E-1,-3.0140382E-1,5.077478E-2,-2.720032E-1,-2.9898188E-1,4.6611547E-1],"split_indices":[0,2,0,0,2,1,2,1,1,0,1,0,0,2,0,1,0,0,1,0,0,0,0,1,0,0,0,0,0,1,0,1,0,0,0,0,1,1,0,0,1,1,1,2,2,2,1,2,2,0,2,1,0,0,0,0,1,2,1,0,0,0,0,0,0,0,0,0,0,0,0,0,0,0,0,0,0,0,0,0,0,0,0,0,0,0,0,0,0,0,0,0,0,0,0,0,0,0,0,0,0,0,0,0,0,0,0,0,0,0,0,0,0,0,0],"split_type":[0,0,0,0,0,0,0,0,0,0,0,0,0,0,0,0,0,0,0,0,0,0,0,0,0,0,0,0,0,0,0,0,0,0,0,0,0,0,0,0,0,0,0,0,0,0,0,0,0,0,0,0,0,0,0,0,0,0,0,0,0,0,0,0,0,0,0,0,0,0,0,0,0,0,0,0,0,0,0,0,0,0,0,0,0,0,0,0,0,0,0,0,0,0,0,0,0,0,0,0,0,0,0,0,0,0,0,0,0,0,0,0,0,0,0],"sum_hessian":[6.4395293E4,1.3952908E4,5.0442383E4,6.0834827E2,1.334456E4,2.1704312E4,2.8738072E4,3.0159157E1,5.781891E2,6.2344834E3,7.1100767E3,8.565326E3,1.3138986E4,1.7082273E4,1.1655798E4,2.2904402E1,7.254755E0,4.3279407E2,1.4539505E2,2.7676052E3,3.4668782E3,4.303417E3,2.8066594E3,1.1312726E3,7.4340537E3,8.262508E3,4.876478E3,9.862727E2,1.6096001E4,7.6105044E3,4.045294E3,1.7245514E1,5.658887E0,1.429944E2,2.4006484E0,1.4759998E3,1.2916055E3,2.0698755E2,3.2598906E3,1.4447059E3,2.8587112E3,2.7468317E2,2.5319763E3,5.160833E2,6.151893E2,7.026646E3,4.0740765E2,7.219577E3,1.0429308E3,3.440027E3,1.436451E3,9.205449E2,6.572778E1,8.1497163E3,7.9462847E3,4.5806104E3,3.029894E3,3.3667651E3,6.7852875E2,9.9007635E0,7.344751E0,1.4686103E0,4.1902766E0,2.2432192E1,1.205622E2,1.2469039E0,1.1537445E0,1.0130763E3,4.629235E2,1.1195258E3,1.7207974E2,3.8919632E1,1.6806792E2,1.1761449E3,2.0837456E3,3.358992E1,1.4111161E3,2.6982378E3,1.6047333E2,1.1869695E2,1.5598622E2,4.073985E2,2.124578E3,3.0364105E2,2.1244226E2,5.7667224E2,3.851706E1,1.1820493E0,7.0254644E3,1.1428603E2,2.9312164E2,2.8803638E3,4.3392134E3,8.4805865E2,1.9487218E2,5.3116174E2,2.9088652E3,1.2470093E3,1.8944179E2,5.970754E2,3.2346954E2,1.8986685E1,4.6741096E1,1.8792749E3,6.2704414E3,1.00484753E3,6.941437E3,1.1465598E3,3.4340503E3,1.8191362E3,1.2107577E3,2.987551E3,3.792141E2,6.7682745E2,1.7013006E0],"tree_param":{"num_deleted":"0","num_feature":"3","num_nodes":"115","size_leaf_vector":"1"}},{"base_weights":[-2.3936724E-2,-4.1071507E-1,7.9273365E-2,9.849207E-1,-4.6741375E-1,4.3017963E-1,-1.729017E-1,6.5281266E-1,1.0025537E0,-2.3943219E-1,-6.9584227E-1,8.427212E-1,1.9774617E-1,-3.2467073E-1,1.478627E-1,5.066277E-1,2.6244178E-1,3.120681E-1,8.862452E-1,-2.6884955E-1,-9.096169E-2,-6.1264366E-1,-8.3041406E-1,2.4345536E-2,9.989132E-1,-1.847383E-2,6.496138E-1,9.8683196E-1,-3.793287E-1,2.6174074E-1,-8.295116E-1,7.074648E-1,-3.9303085E-1,8.943108E-1,3.3016536E-1,-2.1237831E-1,-5.800307E-1,2.8262097E-1,-2.2266033E-1,-6.6232234E-1,-2.9009497E-1,-4.4982353E-1,-8.7652284E-1,1.5571186E-1,-3.2172847E-1,1.0718027E0,4.6615653E-2,-1.5449214E-1,1.9751881E-1,9.7014236E-1,8.494769E-2,9.945142E-1,2.1147859E-1,-2.4124727E-1,-7.5773686E-1,4.3020856E-1,-1.5782242E-1,2.992807E-1,-8.9236635E-1,1.4254144E-1,2.8016344E-1,-3.2464075E-1,9.942664E-2,2.014173E-1,2.7923182E-1,1.7778334E-1,-2.2544973E-2,-8.982704E-2,-2.1492852E-2,-2.435715E-1,-1.14815675E-1,-4.2801015E-2,1.8828855E-1,-1.7784259E-1,-1.1402355E-2,-1.805647E-1,-2.61786E-1,-4.6246927E-3,-2.177334E-1,-1.4934066E-2,-2.7999195E-1,-2.747352E-1,-2.48618E-1,-1.0407889E-1,7.172819E-2,-1.3668011E-1,2.1405219E-1,-4.856251E-5,3.2161224E-1,2.9938528E-2,-1.0189487E-1,-1.743722E-2,-1.7698734E-1,2.2040565E-1,3.165512E-2,9.764303E-2,3.1615233E-1,3.4002882E-1,1.0930535E-2,3.1357706E-1,2.693595E-1,-2.8923644E-2,2.0020474E-1,-4.44258E-2,-1.8498069E-1,-1.848453E-1,-2.644391E-1,-1.7803176E-1,1.3888682E-1,-7.827083E-3,-2.0839025E-1,-3.0296177E-1,-1.5859906E-1],"categories":[],"categories_nodes":[],"categories_segments":[],"categories_sizes":[],"default_left":[0,0,0,0,0,0,0,0,0,0,0,0,0,0,0,0,0,0,0,0,0,0,0,0,0,0,0,0,0,0,0,0,0,0,0,0,0,0,0,0,0,0,0,0,0,0,0,0,0,0,0,0,0,0,0,0,0,0,0,0,0,0,0,0,0,0,0,0,0,0,0,0,0,0,0,0,0,0,0,0,0,0,0,0,0,0,0,0,0,0,0,0,0,0,0,0,0,0,0,0,0,0,0,0,0,0,0,0,0,0,0,0,0],"id":7,"left_children":[1,3,5,7,9,11,13,15,17,19,21,23,25,27,29,31,-1,-1,33,35,37,39,41,43,45,47,49,51,53,55,57,59,61,63,65,67,69,71,73,75,77,79,81,83,85,87,89,91,93,95,97,99,101,103,105,107,109,-1,111,-1,-1,-1,-1,-1,-1,-1,-1,-1,-1,-1,-1,-1,-1,-1,-1,-1,-1,-1,-1,-1,-1,-1,-1,-1,-1,-1,-1,-1,-1,-1,-1,-1,-1,-1,-1,-1,-1,-1,-1,-1,-1,-1,-1,-1,-1,-1,-1,-1,-1,-1,-1,-1,-1],"loss_changes":[2.2903296E3,9.567615E2,4.0076814E3,2.1102905E0,6.046594E2,1.81573E3,1.2829342E3,4.2228127E-1,1.0343628E0,2.536972E1,6.4437744E1,8.722886E2,1.1836079E3,1.2827135E3,9.4233594E2,3.612856E0,0E0,0E0,2.2492981E-1,8.514325E1,4.744316E1,5.730786E1,3.844702E1,4.982007E1,3.977246E2,2.4077814E2,7.095283E2,4.0543213E0,8.9716626E2,5.35986E2,1.02361084E2,3.6873198E-1,2.3610847E0,2.9958344E-1,3.895536E-1,5.030873E1,3.3761185E1,3.6983387E1,4.8680344E1,3.8987793E1,5.751581E1,4.6610367E1,2.9434814E0,3.3369133E1,4.21156E1,1.3588867E0,8.424705E0,2.109956E2,1.564289E2,1.3460034E2,7.222572E1,2.5371094E0,1.2285389E0,4.3994952E2,7.987988E1,1.8163031E2,1.5364185E2,0E0,3.5993958E1,0E0,0E0,0E0,0E0,0E0,0E0,0E0,0E0,0E0,0E0,0E0,0E0,0E0,0E0,0E0,0E0,0E0,0E0,0E0,0E0,0E0,0E0,0E0,0E0,0E0,0E0,0E0,0E0,0E0,0E0,0E0,0E0,0E0,0E0,0E0,0E0,0E0,0E0,0E0,0E0,0E0,0E0,0E0,0E0,0E0,0E0,0E0,0E0,0E0,0E0,0E0,0E0,0E0,0E0],"parents":[2147483647,0,0,1,1,2,2,3,3,4,4,5,5,6,6,7,7,8,8,9,9,10,10,11,11,12,12,13,13,14,14,15,15,18,18,19,19,20,20,21,21,22,22,23,23,24,24,25,25,26,26,27,27,28,28,29,29,30,30,31,31,32,32,33,33,34,34,35,35,36,36,37,37,38,38,39,39,40,40,41,41,42,42,43,43,44,44,45,45,46,46,47,47,48,48,49,49,50,50,51,51,52,52,53,53,54,54,55,55,56,56,58,58],"right_children":[2,4,6,8,10,12,14,16,18,20,22,24,26,28,30,32,-1,-1,34,36,38,40,42,44,46,48,50,52,54,56,58,60,62,64,66,68,70,72,74,76,78,80,82,84,86,88,90,92,94,96,98,100,102,104,106,108,110,-1,112,-1,-1,-1,-1,-1,-1,-1,-1,-1,-1,-1,-1,-1,-1,-1,-1,-1,-1,-1,-1,-1,-1,-1,-1,-1,-1,-1,-1,-1,-1,-1,-1,-1,-1,-1,-1,-1,-1,-1,-1,-1,-1,-1,-1,-1,-1,-1,-1,-1,-1,-1,-1,-1,-1],"split_conditions":[1.77893E5,1E0,3.6302E5,1.0036E4,2E0,8.3E1,5.80952E5,2.8E1,2.3E1,1.57834E5,5.7E1,1.85424E5,2.70635E5,1E0,6.26095E5,2.2E1,2.6244178E-1,3.120681E-1,8.9E1,1.3278E5,1.62889E5,1.57834E5,5.021E3,4.5E1,3.60485E5,6E0,3.43233E5,7.7E1,4.8E1,5.1E1,1E0,1.6E1,7.534E3,3.2587E4,4.5088E4,8.0188E4,1.45334E5,3.2E1,1.67857E5,1.25265E5,1.70367E5,5E0,8.7695E4,2.5E1,4E0,2E0,4E0,2.60548E5,9.1E1,2.73142E5,3E0,2.1E1,5.10846E5,5.43369E5,6.3E1,2E1,8.8E1,2.992807E-1,6.38629E5,1.4254144E-1,2.8016344E-1,-3.2464075E-1,9.942664E-2,2.014173E-1,2.7923182E-1,1.7778334E-1,-2.2544973E-2,-8.982704E-2,-2.1492852E-2,-2.435715E-1,-1.14815675E-1,-4.2801015E-2,1.8828855E-1,-1.7784259E-1,-1.1402355E-2,-1.805647E-1,-2.61786E-1,-4.6246927E-3,-2.177334E-1,-1.4934066E-2,-2.7999195E-1,-2.747352E-1,-2.48618E-1,-1.0407889E-1,7.172819E-2,-1.3668011E-1,2.1405219E-1,-4.856251E-5,3.2161224E-1,2.9938528E-2,-1.0189487E-1,-1.743722E-2,-1.7698734E-1,2.2040565E-1,3.165512E-2,9.764303E-2,3.1615233E-1,3.4002882E-1,1.0930535E-2,3.1357706E-1,2.693595E-1,-2.8923644E-2,2.0020474E-1,-4.44258E-2,-1.8498069E-1,-1.848453E-1,-2.644391E-1,-1.7803176E-1,1.3888682E-1,-7.827083E-3,-2.0839025E-1,-3.0296177E-1,-1.5859906E-1],"split_indices":[0,2,0,0,2,1,0,1,1,0,1,0,0,2,0,1,0,0,1,0,0,0,0,1,0,2,0,1,1,1,2,1,0,0,0,0,0,1,0,0,0,2,0,1,2,2,2,0,1,0,2,1,0,0,1,1,1,0,0,0,0,0,0,0,0,0,0,0,0,0,0,0,0,0,0,0,0,0,0,0,0,0,0,0,0,0,0,0,0,0,0,0,0,0,0,0,0,0,0,0,0,0,0,0,0,0,0,0,0,0,0,0,0],"split_type":[0,0,0,0,0,0,0,0,0,0,0,0,0,0,0,0,0,0,0,0,0,0,0,0,0,0,0,0,0,0,0,0,0,0,0,0,0,0,0,0,0,0,0,0,0,0,0,0,0,0,0,0,0,0,0,0,0,0,0,0,0,0,0,0,0,0,0,0,0,0,0,0,0,0,0,0,0,0,0,0,0,0,0,0,0,0,0,0,0,0,0,0,0,0,0,0,0,0,0,0,0,0,0,0,0,0,0,0,0,0,0,0,0],"sum_hessian":[5.7371992E4,1.2084083E4,4.5287906E4,4.7111963E2,1.1612963E4,1.893659E4,2.6351318E4,2.5669533E1,4.4545007E2,5.813193E3,5.79977E3,6.8233438E3,1.2113245E4,1.7887754E4,8.463566E3,1.7456446E1,8.213085E0,3.304657E2,1.1498438E2,4.8511865E3,9.6200653E2,3.5874143E3,2.2123557E3,1.0937485E3,5.729595E3,8.193562E3,3.9196843E3,7.1497906E2,1.7172773E4,7.5810034E3,8.8256287E2,1.444534E1,3.0111065E0,1.12740906E2,2.2434735E0,4.10747E3,7.437163E2,2.5044273E2,7.115638E2,3.1077134E3,4.7970105E2,2.4022758E2,1.9721282E3,7.9320544E2,3.0054303E2,5.322112E3,4.0748352E2,5.027714E3,3.1658472E3,2.4999104E3,1.4197738E3,7.0768463E2,7.2944727E0,1.25829E4,4.5898735E3,5.409067E3,2.171936E3,2.885685E1,8.5370605E2,8.658867E0,5.786473E0,1.2901645E0,1.720942E0,1.8577295E1,9.416361E1,1.0812523E0,1.1622212E0,2.5371252E3,1.5703446E3,3.4048022E2,4.0323608E2,1.1243299E2,1.3800974E2,2.3609172E2,4.7547208E2,2.4169417E3,6.907718E2,2.948477E2,1.8485335E2,1.3206082E2,1.08166756E2,1.072766E3,8.9936224E2,1.1241116E2,6.807943E2,2.6662433E2,3.3918716E1,1.182036E0,5.3209297E3,3.5882376E2,4.8659767E1,4.117622E3,9.10092E2,4.6191248E2,2.7039346E3,2.8783478E2,2.2120757E3,6.1797924E1,1.357976E3,4.57614E2,2.5007062E2,4.824536E0,2.469937E0,1.0081994E4,2.5009062E3,2.1432454E3,2.446628E3,1.6714645E2,5.241921E3,1.7448124E3,4.2712366E2,6.438972E2,2.0980884E2],"tree_param":{"num_deleted":"0","num_feature":"3","num_nodes":"113","size_leaf_vector":"1"}},{"base_weights":[-1.7237462E-2,-3.3701935E-1,6.5990366E-2,-1.11510865E-1,-6.1179817E-1,3.562401E-1,-1.3643074E-1,9.385272E-1,-1.8134467E-1,-5.2324665E-1,-7.6455694E-1,7.7292466E-1,1.5495613E-1,1.6552202E-2,-3.9666533E-1,5.7122445E-1,9.604124E-1,-1.7382231E-1,-8.644382E-1,-7.285319E-1,-4.2565474E-1,-3.9947808E-1,-8.24051E-1,1.5490118E-2,9.575212E-1,-2.6189277E-2,5.43754E-1,-2.248942E-1,1.598415E-1,-5.935626E-1,-8.942984E-2,4.4666123E-1,2.6432836E-1,3.0250254E-1,8.1935334E-1,-3.346386E-1,-1.417674E-1,-1.7087226E-1,-3.0703747E-1,2.2592664E-1,-7.586204E-1,-4.589229E-1,5.2676257E-2,1.5580958E-2,-7.793045E-1,-8.788359E-1,-7.617635E-1,3.60601E-1,-7.6713813E-3,1.0515743E0,3.2383144E-2,3.162938E-2,-5.085072E-1,8.5699713E-1,5.9531905E-2,9.471769E-1,-2.916419E-1,2.3918428E-1,-2.876817E-1,-5.004968E-1,-8.3265716E-1,1.6686782E-2,-9.112252E-1,1.8802248E-1,-3.2968584E-3,2.513733E-1,1.1584983E-1,5.085131E-3,-1.2072311E-1,-1.3890666E-1,-3.6727365E-2,-2.3101622E-1,7.743693E-2,-2.8206697E-1,2.393947E-1,-1.768825E-1,-2.4931775E-1,-1.04206435E-1,-1.7462641E-1,1.5066088E0,-8.610812E-2,-5.6694485E-2,4.4678643E-1,-1.3469736E-1,-2.800457E-1,-2.530921E-1,-2.9741505E-1,7.692096E-2,-2.3736483E-1,-2.0580351E-1,1.17214685E-2,-4.0662904E-5,3.155654E-1,3.1326163E-1,3.8431636E-3,-6.29811E-3,1.8335651E-1,1.4388354E-1,-1.9621785E-1,6.86108E-2,3.1690407E-1,-9.1151506E-2,6.375385E-2,2.8772128E-1,-7.383589E-2,-4.35411E-2,-1.1858306E-1,-5.0450508E-2,1.1929829E-1,-4.5018822E-2,-2.2900386E-1,-1.2960495E-1,-2.210949E-1,-2.2109902E-1,-2.8115514E-1,2.775695E-2,-2.2805454E-1,-2.776349E-1,3.6716038E-1],"categories":[],"categories_nodes":[],"categories_segments":[],"categories_sizes":[],"default_left":[0,0,0,0,0,0,0,0,0,0,0,0,0,0,0,0,0,0,0,0,0,0,0,0,0,0,0,0,0,0,0,0,0,0,0,0,0,0,0,0,0,0,0,0,0,0,0,0,0,0,0,0,0,0,0,0,0,0,0,0,0,0,0,0,0,0,0,0,0,0,0,0,0,0,0,0,0,0,0,0,0,0,0,0,0,0,0,0,0,0,0,0,0,0,0,0,0,0,0,0,0,0,0,0,0,0,0,0,0,0,0,0,0,0,0,0,0,0,0],"id":8,"left_children":[1,3,5,7,9,11,13,15,17,19,21,23,25,27,29,31,33,35,37,39,41,43,45,47,49,51,53,55,57,59,61,63,-1,-1,65,67,69,71,-1,73,75,77,79,81,83,85,87,-1,89,91,93,95,97,99,101,103,105,107,109,111,113,115,117,-1,-1,-1,-1,-1,-1,-1,-1,-1,-1,-1,-1,-1,-1,-1,-1,-1,-1,-1,-1,-1,-1,-1,-1,-1,-1,-1,-1,-1,-1,-1,-1,-1,-1,-1,-1,-1,-1,-1,-1,-1,-1,-1,-1,-1,-1,-1,-1,-1,-1,-1,-1,-1,-1,-1,-1],"loss_changes":[1.3762656E3,6.6165857E2,2.4107734E3,4.3035757E2,6.4711426E1,1.4138582E3,9.624075E2,2.393402E0,2.8119675E1,6.079944E1,3.798889E1,7.6773145E2,8.007074E2,5.267757E2,5.4135596E2,4.960928E-1,1.4992065E0,2.801062E1,6.4065475E0,2.8356506E1,3.29617E1,3.9290688E1,4.5039062E0,2.9606834E1,3.8412134E2,2.1631885E2,5.48027E2,4.4392053E2,3.3935754E2,1.2094617E2,3.0494678E2,1.528924E0,0E0,0E0,4.2053986E-1,2.154412E1,2.815519E1,3.368247E0,0E0,2.1273018E1,1.1161316E1,2.6391815E1,2.301683E2,3.6467407E1,6.207428E0,2.3329468E0,2.1702362E1,0E0,3.3553707E1,1.3085938E0,8.075651E0,2.1127577E2,1.19735504E2,2.7455603E2,7.902351E1,4.5760193E0,8.141516E1,5.2406165E2,9.411124E1,6.3302124E1,1.4574341E1,1.8257545E2,1.32777405E1,0E0,0E0,0E0,0E0,0E0,0E0,0E0,0E0,0E0,0E0,0E0,0E0,0E0,0E0,0E0,0E0,0E0,0E0,0E0,0E0,0E0,0E0,0E0,0E0,0E0,0E0,0E0,0E0,0E0,0E0,0E0,0E0,0E0,0E0,0E0,0E0,0E0,0E0,0E0,0E0,0E0,0E0,0E0,0E0,0E0,0E0,0E0,0E0,0E0,0E0,0E0,0E0,0E0,0E0,0E0,0E0],"parents":[2147483647,0,0,1,1,2,2,3,3,4,4,5,5,6,6,7,7,8,8,9,9,10,10,11,11,12,12,13,13,14,14,15,15,16,16,17,17,18,18,19,19,20,20,21,21,22,22,23,23,24,24,25,25,26,26,27,27,28,28,29,29,30,30,31,31,34,34,35,35,36,36,37,37,39,39,40,40,41,41,42,42,43,43,44,44,45,45,46,46,48,48,49,49,50,50,51,51,52,52,53,53,54,54,55,55,56,56,57,57,58,58,59,59,60,60,61,61,62,62],"right_children":[2,4,6,8,10,12,14,16,18,20,22,24,26,28,30,32,34,36,38,40,42,44,46,48,50,52,54,56,58,60,62,64,-1,-1,66,68,70,72,-1,74,76,78,80,82,84,86,88,-1,90,92,94,96,98,100,102,104,106,108,110,112,114,116,118,-1,-1,-1,-1,-1,-1,-1,-1,-1,-1,-1,-1,-1,-1,-1,-1,-1,-1,-1,-1,-1,-1,-1,-1,-1,-1,-1,-1,-1,-1,-1,-1,-1,-1,-1,-1,-1,-1,-1,-1,-1,-1,-1,-1,-1,-1,-1,-1,-1,-1,-1,-1,-1,-1,-1,-1],"split_conditions":[1.77893E5,2E0,3.6302E5,1E0,5.7E1,8.3E1,2E0,1.0036E4,8.4E1,7.2677E4,1.0036E4,1.85424E5,2.68148E5,4.93321E5,5.78518E5,3.1E1,2.3E1,2E1,1.503E4,5.021E3,5.5E1,9.4E1,8.7695E4,1E0,3.60485E5,2.60548E5,3.43233E5,1E0,4.6E1,6.3E1,6.26095E5,2.2E1,2.6432836E-1,3.0250254E-1,1.70367E5,3.2587E4,7.534E3,2.506E3,-3.0703747E-1,4E1,3.9E1,1.25265E5,7.7693E4,8.9E1,5E0,9.1E1,9.0235E4,3.60601E-1,2.3E1,2E0,1E0,1.89E2,9.1E1,4E0,4E0,8.8E1,4.18121E5,2.5E1,6.7E1,5.28371E5,8.3E1,5E0,1.51E2,1.8802248E-1,-3.2968584E-3,2.513733E-1,1.1584983E-1,5.085131E-3,-1.2072311E-1,-1.3890666E-1,-3.6727365E-2,-2.3101622E-1,7.743693E-2,-2.8206697E-1,2.393947E-1,-1.768825E-1,-2.4931775E-1,-1.04206435E-1,-1.7462641E-1,1.5066088E0,-8.610812E-2,-5.6694485E-2,4.4678643E-1,-1.3469736E-1,-2.800457E-1,-2.530921E-1,-2.9741505E-1,7.692096E-2,-2.3736483E-1,-2.0580351E-1,1.17214685E-2,-4.0662904E-5,3.155654E-1,3.1326163E-1,3.8431636E-3,-6.29811E-3,1.8335651E-1,1.4388354E-1,-1.9621785E-1,6.86108E-2,3.1690407E-1,-9.1151506E-2,6.375385E-2,2.8772128E-1,-7.383589E-2,-4.35411E-2,-1.1858306E-1,-5.0450508E-2,1.1929829E-1,-4.5018822E-2,-2.2900386E-1,-1.2960495E-1,-2.210949E-1,-2.2109902E-1,-2.8115514E-1,2.775695E-2,-2.2805454E-1,-2.776349E-1,3.6716038E-1],"split_indices":[0,2,0,2,1,1,2,0,1,0,0,0,0,0,0,1,1,1,0,0,1,1,0,2,0,0,0,2,1,1,0,1,0,0,0,0,0,0,0,1,1,0,0,1,2,1,0,0,1,2,2,1,1,2,2,1,0,1,1,0,1,2,1,0,0,0,0,0,0,0,0,0,0,0,0,0,0,0,0,0,0,0,0,0,0,0,0,0,0,0,0,0,0,0,0,0,0,0,0,0,0,0,0,0,0,0,0,0,0,0,0,0,0,0,0,0,0,0,0],"split_type":[0,0,0,0,0,0,0,0,0,0,0,0,0,0,0,0,0,0,0,0,0,0,0,0,0,0,0,0,0,0,0,0,0,0,0,0,0,0,0,0,0,0,0,0,0,0,0,0,0,0,0,0,0,0,0,0,0,0,0,0,0,0,0,0,0,0,0,0,0,0,0,0,0,0,0,0,0,0,0,0,0,0,0,0,0,0,0,0,0,0,0,0,0,0,0,0,0,0,0,0,0,0,0,0,0,0,0,0,0,0,0,0,0,0,0,0,0,0,0],"sum_hessian":[5.1708797E4,1.0678048E4,4.103075E4,5.865605E3,4.812443E3,1.685778E4,2.417297E4,3.649961E2,5.500609E3,3.0492646E3,1.7631783E3,5.48997E3,1.1367809E4,1.5224152E4,8.948818E3,2.2048712E1,3.429474E2,5.4419355E3,5.867329E1,9.804392E2,2.0688254E3,2.4814969E2,1.5150287E3,1.0760043E3,4.413966E3,7.7554077E3,3.6124011E3,5.669805E3,9.554348E3,5.453143E3,3.4956748E3,1.7468199E1,4.580513E0,2.5138336E2,9.156401E1,9.028729E2,4.5390625E3,1.1330383E1,4.7342907E1,2.976399E1,9.5067523E2,1.9343323E3,1.3449318E2,1.1903358E2,1.291161E2,7.990846E2,7.159441E2,1.9627617E1,1.0563767E3,4.0065115E3,4.0745447E2,6.9260684E3,8.2933936E2,2.192988E3,1.4194132E3,3.0477902E2,5.3650264E3,8.115917E3,1.4384305E3,3.9274893E3,1.5256539E3,3.096775E3,3.9890002E2,1.2270444E1,5.197756E0,8.6906685E1,4.657327E0,1.4603201E2,7.5684094E2,2.5647488E2,4.282588E3,4.395763E0,6.9346204E0,9.58373E0,2.0180262E1,2.879584E2,6.6271686E2,1.01695337E3,9.173789E2,7.72368E0,1.267695E2,1.052902E2,1.3743374E1,4.233369E1,8.678242E1,6.1519727E2,1.838873E2,1.9911293E1,6.960328E2,6.721833E1,9.891583E2,1.182025E0,4.0053293E3,6.7387466E0,4.0071573E2,6.3504233E3,5.75645E2,1.06184364E2,7.23155E2,5.287291E2,1.6642588E3,4.2024167E2,9.991716E2,3.019655E2,2.8135104E0,2.2237683E3,3.1412578E3,2.2730776E3,5.8428394E3,1.1166713E3,3.2175922E2,3.0477627E3,8.797265E2,8.0081604E2,7.2483795E2,2.8221619E3,2.74613E2,3.9682288E2,2.0771527E0],"tree_param":{"num_deleted":"0","num_feature":"3","num_nodes":"119","size_leaf_vector":"1"}},{"base_weights":[-1.2686493E-2,-3.078514E-1,4.82946E-2,-1.0331641E-1,-5.726688E-1,2.5586563E-1,-1.0801793E-1,8.87536E-1,-1.5851106E-1,-5.213597E-1,-8.2918394E-1,9.996376E-2,6.356814E-1,7.6286257E-3,-3.208083E-1,4.914197E-1,9.1944677E-1,-1.09250754E-1,-4.5493746E-1,-6.6467404E-1,-3.5821062E-1,-9.6918404E-1,-6.292372E-1,3.32035E-1,-3.6409937E-2,1.0227352E0,2.1603718E-1,8.302459E-1,-2.3657182E-2,-5.034457E-1,-7.078094E-2,3.3636743E-1,2.275679E-1,9.849785E-1,7.4383E-1,-1.2511711E-1,5.715982E-1,-7.077029E-1,-2.6089993E-1,-2.9325995E-1,-7.482548E-1,-2.6535085E-1,-6.155866E-1,-5.061918E-1,-2.922286E-1,-4.3654624E-1,-8.201821E-1,-1.671258E-2,7.7607596E-1,-2.4178591E-1,9.310563E-2,3.1173936E-1,9.96472E-1,4.767143E-1,2.2842037E-2,9.116948E-1,3.739478E-2,-1.342433E-1,2.2337368E-1,-3.9187858E-1,-7.3047477E-1,1.0196224E-2,-8.6769944E-1,1.621075E-1,-9.0469435E-2,2.972077E-1,8.4090516E-2,1.3834028E-1,2.408901E-1,-3.046024E-2,-2.7248263E-1,2.3484917E-1,-1.9655753E-2,-2.3510441E-1,-1.2294313E-1,1.2936245E-1,-1.2693454E-1,3.997564E-2,-1.7136368E-1,-1.6227435E-1,-2.443984E-1,-8.724359E-2,1.1419689E-1,-1.9972813E-1,-3.8399074E-2,1.4824408E-2,-2.3192863E-1,-1.9719595E-1,-3.4812465E-2,-1.9474255E-1,-2.6857644E-1,2.3162194E-2,-8.597569E-2,3.1128454E-1,6.9344975E-2,-6.3789986E-2,-2.8504425E-1,9.304579E-3,1.8005887E-1,1.4972089E-1,3.1165925E-1,2.986931E-1,1.5955288E-2,-1.1605383E-1,4.3902617E-2,2.9937926E-1,2.281348E-1,-3.8823476E-1,2.4486427E-1,-1.0341958E-2,-1.660263E-1,8.688933E-2,-2.0637168E-1,-1.7507732E-1,-8.0770776E-2,-1.8923399E-1,-2.7073422E-1,-5.779025E-1,1.1417547E-2,-2.969357E-1,-1.5369326E-1],"categories":[],"categories_nodes":[],"categories_segments":[],"categories_sizes":[],"default_left":[0,0,0,0,0,0,0,0,0,0,0,0,0,0,0,0,0,0,0,0,0,0,0,0,0,0,0,0,0,0,0,0,0,0,0,0,0,0,0,0,0,0,0,0,0,0,0,0,0,0,0,0,0,0,0,0,0,0,0,0,0,0,0,0,0,0,0,0,0,0,0,0,0,0,0,0,0,0,0,0,0,0,0,0,0,0,0,0,0,0,0,0,0,0,0,0,0,0,0,0,0,0,0,0,0,0,0,0,0,0,0,0,0,0,0,0,0,0,0,0,0],"id":9,"left_children":[1,3,5,7,9,11,13,15,17,19,21,23,25,27,29,31,33,35,37,39,41,43,45,47,49,51,53,55,57,59,61,63,-1,65,67,69,71,73,75,77,79,81,83,85,-1,87,89,91,93,95,97,-1,99,101,103,105,107,109,111,113,115,117,119,-1,-1,-1,-1,-1,-1,-1,-1,-1,-1,-1,-1,-1,-1,-1,-1,-1,-1,-1,-1,-1,-1,-1,-1,-1,-1,-1,-1,-1,-1,-1,-1,-1,-1,-1,-1,-1,-1,-1,-1,-1,-1,-1,-1,-1,-1,-1,-1,-1,-1,-1,-1,-1,-1,-1,-1,-1,-1],"loss_changes":[8.584058E2,4.422375E2,1.2824524E3,2.5217978E2,4.640039E1,1.00532654E3,5.5485016E2,2.6238098E0,6.370585E1,6.915552E1,1.5945343E1,3.8102713E2,8.023102E2,3.7599847E2,3.6249817E2,5.852041E-1,1.8456268E0,4.0530872E1,3.031546E1,4.8791748E1,3.305902E1,2.9367065E-1,8.708282E0,6.9008105E2,2.0174861E2,7.128906E-2,1.1944318E2,3.45325E1,3.8452374E2,1.1591467E2,2.1634875E2,2.0673218E0,0E0,3.6679077E-1,7.157898E-1,6.752107E1,1.1554157E1,5.7781067E0,3.9857353E1,3.4653114E1,1.7295471E1,1.6941467E1,8.912659E0,8.85483E-1,0E0,8.753258E0,9.934616E-1,6.330859E1,2.791371E2,6.0371445E1,1.4643938E2,0E0,2.0823425E1,2.2183571E2,6.9037094E1,5.571686E0,5.3848957E1,4.0660867E2,2.6301E2,7.221768E1,2.5327515E1,1.6432681E2,1.2910248E1,0E0,0E0,0E0,0E0,0E0,0E0,0E0,0E0,0E0,0E0,0E0,0E0,0E0,0E0,0E0,0E0,0E0,0E0,0E0,0E0,0E0,0E0,0E0,0E0,0E0,0E0,0E0,0E0,0E0,0E0,0E0,0E0,0E0,0E0,0E0,0E0,0E0,0E0,0E0,0E0,0E0,0E0,0E0,0E0,0E0,0E0,0E0,0E0,0E0,0E0,0E0,0E0,0E0,0E0,0E0,0E0,0E0,0E0],"parents":[2147483647,0,0,1,1,2,2,3,3,4,4,5,5,6,6,7,7,8,8,9,9,10,10,11,11,12,12,13,13,14,14,15,15,16,16,17,17,18,18,19,19,20,20,21,21,22,22,23,23,24,24,25,25,26,26,27,27,28,28,29,29,30,30,31,31,33,33,34,34,35,35,36,36,37,37,38,38,39,39,40,40,41,41,42,42,43,43,45,45,46,46,47,47,48,48,49,49,50,50,52,52,53,53,54,54,55,55,56,56,57,57,58,58,59,59,60,60,61,61,62,62],"right_children":[2,4,6,8,10,12,14,16,18,20,22,24,26,28,30,32,34,36,38,40,42,44,46,48,50,52,54,56,58,60,62,64,-1,66,68,70,72,74,76,78,80,82,84,86,-1,88,90,92,94,96,98,-1,100,102,104,106,108,110,112,114,116,118,120,-1,-1,-1,-1,-1,-1,-1,-1,-1,-1,-1,-1,-1,-1,-1,-1,-1,-1,-1,-1,-1,-1,-1,-1,-1,-1,-1,-1,-1,-1,-1,-1,-1,-1,-1,-1,-1,-1,-1,-1,-1,-1,-1,-1,-1,-1,-1,-1,-1,-1,-1,-1,-1,-1,-1,-1,-1,-1],"split_conditions":[1.57834E5,2E0,3.6553E5,1E0,1.30278E5,2.73142E5,2E0,1.0036E4,1.3278E5,7.517E4,1.45334E5,8.6E1,3.43233E5,1E0,5.78518E5,2.8E1,2.3E1,1.27771E5,1.45334E5,1.0036E4,5.7E1,2.5E1,4.9E1,1.85424E5,4E0,3.15703E5,8.4E1,5.80952E5,5.80952E5,5.7E1,6.26095E5,2.2E1,2.275679E-1,1.55353E5,3.2587E4,1.25265E5,3.8E1,3.5E1,1.47827E5,3E0,4.2E1,5.6E1,1.25265E5,1.42789E5,-2.922286E-1,1.52843E5,5.8E1,4.6E1,8.3E1,2.27E2,1.89E2,3.1173936E-1,3.17892E5,3.60485E5,3.47961E5,2.1E1,6.23571E5,5.43369E5,6.26095E5,4.43167E5,8.3E1,2.3E1,4.3E1,1.621075E-1,-9.0469435E-2,2.972077E-1,8.4090516E-2,1.3834028E-1,2.408901E-1,-3.046024E-2,-2.7248263E-1,2.3484917E-1,-1.9655753E-2,-2.3510441E-1,-1.2294313E-1,1.2936245E-1,-1.2693454E-1,3.997564E-2,-1.7136368E-1,-1.6227435E-1,-2.443984E-1,-8.724359E-2,1.1419689E-1,-1.9972813E-1,-3.8399074E-2,1.4824408E-2,-2.3192863E-1,-1.9719595E-1,-3.4812465E-2,-1.9474255E-1,-2.6857644E-1,2.3162194E-2,-8.597569E-2,3.1128454E-1,6.9344975E-2,-6.3789986E-2,-2.8504425E-1,9.304579E-3,1.8005887E-1,1.4972089E-1,3.1165925E-1,2.986931E-1,1.5955288E-2,-1.1605383E-1,4.3902617E-2,2.9937926E-1,2.281348E-1,-3.8823476E-1,2.4486427E-1,-1.0341958E-2,-1.660263E-1,8.688933E-2,-2.0637168E-1,-1.7507732E-1,-8.0770776E-2,-1.8923399E-1,-2.7073422E-1,-5.779025E-1,1.1417547E-2,-2.969357E-1,-1.5369326E-1],"split_indices":[0,2,0,2,0,0,2,0,0,0,0,1,0,2,0,1,1,0,0,0,1,1,1,0,2,0,1,0,0,1,0,1,0,0,0,0,1,1,0,2,1,1,0,0,0,0,1,1,1,1,1,0,0,0,0,1,0,0,0,0,1,1,1,0,0,0,0,0,0,0,0,0,0,0,0,0,0,0,0,0,0,0,0,0,0,0,0,0,0,0,0,0,0,0,0,0,0,0,0,0,0,0,0,0,0,0,0,0,0,0,0,0,0,0,0,0,0,0,0,0,0],"split_type":[0,0,0,0,0,0,0,0,0,0,0,0,0,0,0,0,0,0,0,0,0,0,0,0,0,0,0,0,0,0,0,0,0,0,0,0,0,0,0,0,0,0,0,0,0,0,0,0,0,0,0,0,0,0,0,0,0,0,0,0,0,0,0,0,0,0,0,0,0,0,0,0,0,0,0,0,0,0,0,0,0,0,0,0,0,0,0,0,0,0,0,0,0,0,0,0,0,0,0,0,0,0,0,0,0,0,0,0,0,0,0,0,0,0,0,0,0,0,0,0,0],"sum_hessian":[4.7688766E4,8.164815E3,3.952395E4,4.607526E3,3.5572896E3,1.6977928E4,2.2546021E4,2.4232025E2,4.3652056E3,2.9668765E3,5.904129E2,1.2037992E4,4.9399365E3,1.4607923E4,7.938099E3,1.9288393E1,2.2303186E2,3.744338E3,6.208675E2,1.577812E3,1.3890646E3,3.4500067E2,2.4541222E2,4.455129E3,7.582863E3,2.5690068E3,2.37093E3,5.342781E2,1.40736455E4,4.5866655E3,3.3514336E3,1.3634092E1,5.6543E0,1.59067E2,6.3964855E1,3.6598655E3,8.447248E1,2.6848062E2,3.5238687E2,2.9066595E2,1.287146E3,1.0222674E3,3.667972E2,4.713544E0,3.4028714E2,1.2378329E2,1.2162892E2,2.4958572E3,1.9592719E3,2.9322524E3,4.6506104E3,1.5578733E3,1.0111335E3,1.0085847E3,1.3623451E3,4.8436935E2,4.9908737E1,9.721959E3,4.3516865E3,3.0771917E3,1.5094736E3,3.043193E3,3.0824033E2,1.0446561E1,3.1875315E0,1.5738498E2,1.6820352E0,1.2587906E1,5.137695E1,3.5539756E3,1.0589002E2,6.326774E1,2.1204742E1,2.1262033E2,5.586028E1,6.659482E1,2.8579205E2,1.14890076E2,1.7577588E2,3.1445953E2,9.7268646E2,9.8403345E2,3.8233944E1,3.322434E2,3.4553806E1,1.7939607E0,2.919583E0,7.2673E1,5.111029E1,4.004349E1,8.1585434E1,1.852035E3,6.438222E2,1.3232631E3,6.360088E2,2.8175942E3,1.1465801E2,4.144234E3,5.063768E2,8.0411194E1,9.307223E2,4.5263895E2,5.5594574E2,3.1506012E2,1.047285E3,3.049164E2,1.7945293E2,1.8174692E1,3.1734045E1,7.853741E3,1.8682174E3,4.0573652E3,2.9432114E2,1.1990707E3,1.8781211E3,9.584911E2,5.5098254E2,4.2196995E1,3.0009963E3,2.2809727E2,8.014305E1],"tree_param":{"num_deleted":"0","num_feature":"3","num_nodes":"121","size_leaf_vector":"1"}},{"base_weights":[-8.522816E-3,-2.4520427E-1,3.9003063E-2,-7.694702E-2,-4.882572E-1,2.2078595E-1,-7.362019E-2,8.348857E-1,-1.1839572E-1,-4.368305E-1,-7.686932E-1,7.7222496E-2,8.473503E-1,-1.4147631E-2,-3.6471328E-1,4.1602215E-1,8.735626E-1,-8.002798E-2,-3.7036E-1,-5.8249074E-1,-2.843832E-1,-9.394839E-1,-5.479715E-1,2.6447406E-1,-2.661805E-2,1.0065855E0,4.142736E-1,-2.3512828E-1,5.7605207E-2,-3.8984144E-1,9.933444E-1,2.9313058E-1,2.3423287E-1,9.5681685E-1,6.6690624E-1,-1.544557E-1,3.3433538E-2,-6.1867595E-1,-2.0131338E-1,-1.5372954E-1,-6.627478E-1,-2.0345247E-1,-5.324873E-1,-4.4685632E-1,-2.837027E-1,-4.0969852E-1,-8.503334E-1,-1.2598393E-2,6.830583E-1,-1.7977999E-1,6.605989E-2,3.0847812E-1,9.72328E-1,5.7535283E-2,9.3492603E-1,-1.3727273E-1,-8.362587E-1,3.082513E0,3.33931E-2,-3.5099995E-1,-1.0771244E0,1.1472137E0,-2.584166E-1,1.3734755E-1,-8.51729E-3,2.892224E-1,7.225311E-2,1.14687756E-1,2.1981412E-1,-5.6376243E-3,-8.3781436E-2,1.310341E-1,-1.1088758E-2,-1.20610215E-1,-2.256709E-1,-2.5519796E-2,-2.9091614E-1,2.8647004E-2,-2.4158588E-1,-1.2531321E-1,-2.1721284E-1,3.8123272E-2,-7.257073E-2,-1.7291887E-1,4.1579615E-2,1.1843975E-2,-2.1678878E-1,-1.7531104E-1,-5.5813443E-2,-2.651183E-1,-1.3886926E-1,2.972442E-1,-1.0831121E-2,3.0812672E-1,4.740864E-2,9.066017E-2,-6.6495314E-2,8.064869E-3,2.6336247E-1,1.2421682E-1,3.083408E-1,3.1079555E-1,-8.058869E-2,1.7679393E-1,3.336701E-1,-7.7370934E-2,9.356839E-2,-2.7907193E-1,-1.424153E-1,-6.561088E-2,1.6077961E0,4.5054484E-2,-3.4030784E-2,-1.5711406E-2,-1.3176082E-1,2.5447527E-2,-3.798773E-1,-1.598581E-2,3.604221E-1],"categories":[],"categories_nodes":[],"categories_segments":[],"categories_sizes":[],"default_left":[0,0,0,0,0,0,0,0,0,0,0,0,0,0,0,0,0,0,0,0,0,0,0,0,0,0,0,0,0,0,0,0,0,0,0,0,0,0,0,0,0,0,0,0,0,0,0,0,0,0,0,0,0,0,0,0,0,0,0,0,0,0,0,0,0,0,0,0,0,0,0,0,0,0,0,0,0,0,0,0,0,0,0,0,0,0,0,0,0,0,0,0,0,0,0,0,0,0,0,0,0,0,0,0,0,0,0,0,0,0,0,0,0,0,0,0,0,0,0],"id":10,"left_children":[1,3,5,7,9,11,13,15,17,19,21,23,25,27,29,31,33,35,37,39,41,43,45,47,49,51,53,55,57,59,61,63,-1,65,67,69,71,73,75,77,79,81,83,85,-1,87,89,91,93,95,97,-1,99,101,103,105,107,109,111,113,115,117,-1,-1,-1,-1,-1,-1,-1,-1,-1,-1,-1,-1,-1,-1,-1,-1,-1,-1,-1,-1,-1,-1,-1,-1,-1,-1,-1,-1,-1,-1,-1,-1,-1,-1,-1,-1,-1,-1,-1,-1,-1,-1,-1,-1,-1,-1,-1,-1,-1,-1,-1,-1,-1,-1,-1,-1,-1],"loss_changes":[5.0044727E2,3.042143E2,7.585516E2,1.6629974E2,4.3553528E1,1.2748845E3,3.960572E2,2.7361603E0,4.0642487E1,5.699054E1,1.7213287E1,2.242508E2,1.8178455E2,3.0124112E2,1.3283264E2,5.816891E-1,2.359787E0,3.0849167E1,2.3202446E1,4.5160095E1,2.5184189E1,3.8183594E-1,8.328945E0,4.7715366E2,1.0533006E2,4.3408203E-1,1.3218909E2,2.738159E2,1.0502913E3,1.0136597E2,2.1190636E1,8.1400263E-1,0E0,4.0128326E-1,7.189121E-1,3.7345722E1,4.112107E1,6.196312E0,2.9583313E1,3.3964176E1,1.633377E1,1.2122314E1,9.191193E0,7.2184074E-1,0E0,5.530426E0,4.2155457E-1,5.8444843E1,2.9581482E2,5.651973E1,1.4701505E2,0E0,2.3319824E1,1.3545389E2,1.7080353E1,2.1714119E2,2.1703094E1,8.57074E2,2.4401607E2,9.503613E1,4.4805252E1,4.3446274E0,0E0,0E0,0E0,0E0,0E0,0E0,0E0,0E0,0E0,0E0,0E0,0E0,0E0,0E0,0E0,0E0,0E0,0E0,0E0,0E0,0E0,0E0,0E0,0E0,0E0,0E0,0E0,0E0,0E0,0E0,0E0,0E0,0E0,0E0,0E0,0E0,0E0,0E0,0E0,0E0,0E0,0E0,0E0,0E0,0E0,0E0,0E0,0E0,0E0,0E0,0E0,0E0,0E0,0E0,0E0,0E0,0E0],"parents":[2147483647,0,0,1,1,2,2,3,3,4,4,5,5,6,6,7,7,8,8,9,9,10,10,11,11,12,12,13,13,14,14,15,15,16,16,17,17,18,18,19,19,20,20,21,21,22,22,23,23,24,24,25,25,26,26,27,27,28,28,29,29,30,30,31,31,33,33,34,34,35,35,36,36,37,37,38,38,39,39,40,40,41,41,42,42,43,43,45,45,46,46,47,47,48,48,49,49,50,50,52,52,53,53,54,54,55,55,56,56,57,57,58,58,59,59,60,60,61,61],"right_children":[2,4,6,8,10,12,14,16,18,20,22,24,26,28,30,32,34,36,38,40,42,44,46,48,50,52,54,56,58,60,62,64,-1,66,68,70,72,74,76,78,80,82,84,86,-1,88,90,92,94,96,98,-1,100,102,104,106,108,110,112,114,116,118,-1,-1,-1,-1,-1,-1,-1,-1,-1,-1,-1,-1,-1,-1,-1,-1,-1,-1,-1,-1,-1,-1,-1,-1,-1,-1,-1,-1,-1,-1,-1,-1,-1,-1,-1,-1,-1,-1,-1,-1,-1,-1,-1,-1,-1,-1,-1,-1,-1,-1,-1,-1,-1,-1,-1,-1,-1],"split_conditions":[1.57834E5,2E0,3.50459E5,1E0,1.30278E5,2.73142E5,6E1,1.0036E4,1.3278E5,7.517E4,1.45334E5,8.6E1,3.43233E5,4.43167E5,7E0,3.1E1,2.3E1,8.0188E4,1.45334E5,5.021E3,5.7E1,2.5E1,5.8E1,1.85424E5,4E0,3.15703E5,3.47961E5,4.33161E5,4.45689E5,2.03E2,3.6302E5,2.2E1,2.3423287E-1,1.55353E5,3.2587E4,4.0058E4,8.5215E4,1.35288E5,5.8E1,5E0,3.9E1,8.2713E4,1.3E2,1.42789E5,-2.837027E-1,1.52843E5,5E0,1E0,8.3E1,1.97967E5,2.68148E5,3.0847812E-1,3.17892E5,8.4E1,9.9E1,4.15642E5,4.4069E5,3.5E1,3.5E1,3.6302E5,3.57991E5,1.14E2,-2.584166E-1,1.3734755E-1,-8.51729E-3,2.892224E-1,7.225311E-2,1.14687756E-1,2.1981412E-1,-5.6376243E-3,-8.3781436E-2,1.310341E-1,-1.1088758E-2,-1.20610215E-1,-2.256709E-1,-2.5519796E-2,-2.9091614E-1,2.8647004E-2,-2.4158588E-1,-1.2531321E-1,-2.1721284E-1,3.8123272E-2,-7.257073E-2,-1.7291887E-1,4.1579615E-2,1.1843975E-2,-2.1678878E-1,-1.7531104E-1,-5.5813443E-2,-2.651183E-1,-1.3886926E-1,2.972442E-1,-1.0831121E-2,3.0812672E-1,4.740864E-2,9.066017E-2,-6.6495314E-2,8.064869E-3,2.6336247E-1,1.2421682E-1,3.083408E-1,3.1079555E-1,-8.058869E-2,1.7679393E-1,3.336701E-1,-7.7370934E-2,9.356839E-2,-2.7907193E-1,-1.424153E-1,-6.561088E-2,1.6077961E0,4.5054484E-2,-3.4030784E-2,-1.5711406E-2,-1.3176082E-1,2.5447527E-2,-3.798773E-1,-1.598581E-2,3.604221E-1],"split_indices":[0,2,0,2,0,0,1,0,0,0,0,1,0,0,2,1,1,0,0,0,1,1,1,0,2,0,0,0,0,1,0,1,0,0,0,0,0,0,1,2,1,0,1,0,0,0,2,2,1,0,0,0,0,1,1,0,0,1,1,0,0,1,0,0,0,0,0,0,0,0,0,0,0,0,0,0,0,0,0,0,0,0,0,0,0,0,0,0,0,0,0,0,0,0,0,0,0,0,0,0,0,0,0,0,0,0,0,0,0,0,0,0,0,0,0,0,0,0,0],"split_type":[0,0,0,0,0,0,0,0,0,0,0,0,0,0,0,0,0,0,0,0,0,0,0,0,0,0,0,0,0,0,0,0,0,0,0,0,0,0,0,0,0,0,0,0,0,0,0,0,0,0,0,0,0,0,0,0,0,0,0,0,0,0,0,0,0,0,0,0,0,0,0,0,0,0,0,0,0,0,0,0,0,0,0,0,0,0,0,0,0,0,0,0,0,0,0,0,0,0,0,0,0,0,0,0,0,0,0,0,0,0,0,0,0,0,0,0,0,0,0],"sum_hessian":[4.448831E4,7.438754E3,3.704956E4,4.3965137E3,3.04224E3,1.4172713E4,2.2876844E4,1.9032823E2,4.2061855E3,2.5729644E3,4.6927557E2,1.1531619E4,2.6410938E3,1.8996717E4,3.8801274E3,1.7082647E1,1.7324557E2,3.6514763E3,5.547092E2,1.3143292E3,1.2586353E3,2.627262E2,2.0654938E2,4.1130933E3,7.418526E3,1.9301027E3,7.109912E2,4.6557876E3,1.4340929E4,3.8103376E3,6.978979E1,1.4126753E1,2.955894E0,1.209067E2,5.2338882E1,2.2048152E3,1.4466611E3,2.2359956E2,3.3110968E2,2.0769037E2,1.1066388E3,9.504286E2,3.0820663E2,4.1694007E0,2.585568E2,1.4334937E2,6.3200005E1,2.4754768E3,1.6376162E3,2.796318E3,4.6222075E3,1.164376E3,7.657267E2,4.2256827E2,2.8842294E2,4.0050503E3,6.5073737E2,1.1287382E2,1.4228055E4,3.6079468E3,2.0239078E2,6.479578E1,4.994011E0,9.061304E0,5.0654488E0,1.1935034E2,1.5563538E0,1.1107745E1,4.1231136E1,1.0570481E3,1.147767E3,2.1419397E2,1.2324672E3,8.680593E1,1.3679362E2,2.885652E2,4.254448E1,1.5084558E2,5.6844788E1,2.2299463E2,8.836442E2,9.8800186E1,8.5162836E2,2.8941162E2,1.8795027E1,1.8187693E0,2.3506315E0,7.958295E1,6.3766422E1,5.7005558E1,6.1944466E0,5.5719776E1,2.419757E3,9.8876337E2,6.4885284E2,2.230105E2,2.5733076E3,4.4104014E3,2.1180634E2,6.99765E1,6.957502E2,1.0510145E2,3.1746683E2,9.9262115E1,1.8916081E2,3.1574873E3,8.4756305E2,5.1523206E2,1.3550531E2,4.6441185E1,6.643263E1,7.924694E3,6.3033613E3,8.2302386E2,2.7849229E3,2.840917E1,1.739816E2,2.7994156E0,6.199636E1],"tree_param":{"num_deleted":"0","num_feature":"3","num_nodes":"119","size_leaf_vector":"1"}},{"base_weights":[-7.6897983E-3,7.888739E-1,-1.9539146E-2,8.450527E-1,-3.1758356E-4,-3.761203E-1,3.2841233E-3,9.2916715E-1,6.4942497E-1,-1.0695846E0,7.224977E-1,-2.746653E-1,-6.562983E-1,-1.8018839E-1,4.9717564E-2,3.5100764E-1,9.4118476E-1,6.7403424E-1,1.4607655E-1,-4.5757005E-1,-1.2643504E0,2.307846E-1,2.688606E-1,-7.111812E-1,-2.2474897E-1,-1.120793E0,-5.538409E-1,-3.4793206E-2,-3.7598845E-1,2.103269E-1,-5.530235E-2,5.7709552E-2,6.477364E-1,2.9451996E-1,8.297059E-1,6.067584E-1,2.9455853E-1,-1.0316011E-1,6.354903E-1,-2.2672108E-1,-2.157632E-1,-1.07253164E-1,-3.9677104E-1,5.057691E-1,-1.7463817E-1,-9.390744E-1,-5.906753E-1,-1.9805692E-1,-8.14054E-1,-1.7923771E-1,-1.1877111E0,-1.0018002E0,-4.048118E-1,-2.6946083E-2,-7.671931E-1,-2.9341653E-1,-5.8721256E-1,7.4892247E-1,7.412111E-2,-2.6062268E-1,5.4542948E-2,1.3544454E-1,-2.8726035E-1,2.3073241E-1,2.905557E-2,-1.4514359E-2,2.5565967E-1,1.0092054E-1,2.0271757E-1,1.863257E-1,-1.0238352E-1,2.2468296E-1,5.932306E-2,2.2499274E-2,-1.4053006E-1,2.1408665E-1,5.4314446E-2,-2.4635752E-1,1.8808103E-1,6.506191E-2,-2.9023498E-1,-5.894356E-2,-1.890992E-1,3.1386793E-2,-6.73375E-2,-3.016127E-1,-1.9646867E-1,-2.8881362E-1,-3.744131E-1,-2.4516805E-1,-4.626424E-1,-1.565329E-1,-5.090784E-2,-9.071193E-2,-2.2059558E-3,-8.084151E-3,-2.797229E-1,-8.040093E-2,-2.8716227E-1,-5.5481173E-2,-2.0135741E-1,2.615841E-1,2.1575425E-2,-1.5610801E-2,7.609483E-2,-6.393011E-2,-2.0836018E-1,1.1976373E-1,-1.4889067E-2],"categories":[],"categories_nodes":[],"categories_segments":[],"categories_sizes":[],"default_left":[0,0,0,0,0,0,0,0,0,0,0,0,0,0,0,0,0,0,0,0,0,0,0,0,0,0,0,0,0,0,0,0,0,0,0,0,0,0,0,0,0,0,0,0,0,0,0,0,0,0,0,0,0,0,0,0,0,0,0,0,0,0,0,0,0,0,0,0,0,0,0,0,0,0,0,0,0,0,0,0,0,0,0,0,0,0,0,0,0,0,0,0,0,0,0,0,0,0,0,0,0,0,0,0,0,0,0,0,0],"id":11,"left_children":[1,3,5,7,9,11,13,15,17,19,21,23,25,27,29,31,33,35,37,39,41,43,-1,45,47,49,51,53,55,57,59,61,63,-1,65,67,-1,69,71,-1,73,-1,-1,75,77,79,81,83,85,-1,87,89,91,93,95,97,99,101,103,105,107,-1,-1,-1,-1,-1,-1,-1,-1,-1,-1,-1,-1,-1,-1,-1,-1,-1,-1,-1,-1,-1,-1,-1,-1,-1,-1,-1,-1,-1,-1,-1,-1,-1,-1,-1,-1,-1,-1,-1,-1,-1,-1,-1,-1,-1,-1,-1,-1],"loss_changes":[4.0301382E2,2.774759E1,3.4239188E2,9.010529E0,3.368975E1,7.1759674E1,3.368728E2,2.4923706E0,2.1187973E0,1.5171528E0,2.0146332E0,4.0362564E1,3.1364502E1,2.2734366E2,5.3227496E2,8.213612E-1,9.8172E-1,2.9326782E0,1.239027E0,2.5593996E-1,2.013607E-1,9.953968E-1,0E0,4.6735992E0,2.6113144E1,3.5096588E0,3.6485886E1,2.6325523E1,5.9182373E1,9.1520654E2,4.3035297E2,2.8549826E0,2.4692178E-1,0E0,2.262169E0,2.4285278E0,0E0,1.4595922E0,2.0048618E-2,0E0,3.737101E-1,0E0,0E0,2.1533656E-1,2.604244E0,2.3141022E0,1.8649406E0,1.2803787E1,1.5357742E0,0E0,2.3483276E-1,1.2430191E1,1.1360916E1,2.4479118E1,5.913656E0,4.1050705E1,3.2153717E1,2.0967249E2,2.2557578E2,1.369874E2,4.4637204E2,0E0,0E0,0E0,0E0,0E0,0E0,0E0,0E0,0E0,0E0,0E0,0E0,0E0,0E0,0E0,0E0,0E0,0E0,0E0,0E0,0E0,0E0,0E0,0E0,0E0,0E0,0E0,0E0,0E0,0E0,0E0,0E0,0E0,0E0,0E0,0E0,0E0,0E0,0E0,0E0,0E0,0E0,0E0,0E0,0E0,0E0,0E0,0E0],"parents":[2147483647,0,0,1,1,2,2,3,3,4,4,5,5,6,6,7,7,8,8,9,9,10,10,11,11,12,12,13,13,14,14,15,15,16,16,17,17,18,18,19,19,20,20,21,21,23,23,24,24,25,25,26,26,27,27,28,28,29,29,30,30,31,31,32,32,34,34,35,35,37,37,38,38,40,40,43,43,44,44,45,45,46,46,47,47,48,48,50,50,51,51,52,52,53,53,54,54,55,55,56,56,57,57,58,58,59,59,60,60],"right_children":[2,4,6,8,10,12,14,16,18,20,22,24,26,28,30,32,34,36,38,40,42,44,-1,46,48,50,52,54,56,58,60,62,64,-1,66,68,-1,70,72,-1,74,-1,-1,76,78,80,82,84,86,-1,88,90,92,94,96,98,100,102,104,106,108,-1,-1,-1,-1,-1,-1,-1,-1,-1,-1,-1,-1,-1,-1,-1,-1,-1,-1,-1,-1,-1,-1,-1,-1,-1,-1,-1,-1,-1,-1,-1,-1,-1,-1,-1,-1,-1,-1,-1,-1,-1,-1,-1,-1,-1,-1,-1,-1],"split_conditions":[1E0,5.80952E5,2E1,2.3E1,6.23571E5,5.28371E5,1.82884E5,1.0036E4,7.7E1,1.8E1,6.26095E5,1.2E1,5.43369E5,2E0,3.6302E5,1.6E1,1.9E1,4.2E1,5.10846E5,1.5E1,5.83474E5,1.9E1,2.688606E-1,1E1,2E0,5.30866E5,1.5E1,8.4E1,6.1E1,8.3E1,4.95823E5,1.5E1,2.1E1,2.9451996E-1,2.2524E4,8.5215E4,2.9455853E-1,1.27771E5,5.58433E5,-2.2672108E-1,5.98557E5,-1.07253164E-1,-3.9677104E-1,1.4E1,3E1,1.503E4,3.7603E4,3.2587E4,1.7E1,-1.7923771E-1,5.35887E5,5.80952E5,5.96045E5,1.2537E4,1.0036E4,1.80453E5,7.534E3,3.60485E5,6E0,6.3E1,2.8E1,1.3544454E-1,-2.8726035E-1,2.3073241E-1,2.905557E-2,-1.4514359E-2,2.5565967E-1,1.0092054E-1,2.0271757E-1,1.863257E-1,-1.0238352E-1,2.2468296E-1,5.932306E-2,2.2499274E-2,-1.4053006E-1,2.1408665E-1,5.4314446E-2,-2.4635752E-1,1.8808103E-1,6.506191E-2,-2.9023498E-1,-5.894356E-2,-1.890992E-1,3.1386793E-2,-6.73375E-2,-3.016127E-1,-1.9646867E-1,-2.8881362E-1,-3.744131E-1,-2.4516805E-1,-4.626424E-1,-1.565329E-1,-5.090784E-2,-9.071193E-2,-2.2059558E-3,-8.084151E-3,-2.797229E-1,-8.040093E-2,-2.8716227E-1,-5.5481173E-2,-2.0135741E-1,2.615841E-1,2.1575425E-2,-1.5610801E-2,7.609483E-2,-6.393011E-2,-2.0836018E-1,1.1976373E-1,-1.4889067E-2],"split_indices":[2,0,1,1,0,0,0,0,1,1,0,1,0,2,0,1,1,1,0,1,0,1,0,1,2,0,1,1,1,1,0,1,1,0,0,0,0,0,0,0,0,0,0,1,1,0,0,0,1,0,0,0,0,0,0,0,0,0,2,1,1,0,0,0,0,0,0,0,0,0,0,0,0,0,0,0,0,0,0,0,0,0,0,0,0,0,0,0,0,0,0,0,0,0,0,0,0,0,0,0,0,0,0,0,0,0,0,0,0],"split_type":[0,0,0,0,0,0,0,0,0,0,0,0,0,0,0,0,0,0,0,0,0,0,0,0,0,0,0,0,0,0,0,0,0,0,0,0,0,0,0,0,0,0,0,0,0,0,0,0,0,0,0,0,0,0,0,0,0,0,0,0,0,0,0,0,0,0,0,0,0,0,0,0,0,0,0,0,0,0,0,0,0,0,0,0,0,0,0,0,0,0,0,0,0,0,0,0,0,0,0,0,0,0,0,0,0,0,0,0,0],"sum_hessian":[4.2695117E4,6.2484424E2,4.2070273E4,5.8325433E2,4.1589886E1,2.5298276E3,3.9540445E4,4.0525598E2,1.7799838E2,1.658129E1,2.5008595E1,1.8587408E3,6.7108685E2,7.9852876E3,3.1555156E4,8.867197E0,3.9638876E2,1.6937819E2,8.620194E0,4.811475E0,1.17698145E1,7.1362557E0,1.787234E1,1.8937941E2,1.6693615E3,1.1948007E2,5.5160675E2,4.5831543E3,3.4021333E3,1.2475338E4,1.9079818E4,5.060093E0,3.807104E0,2.8494034E2,1.1144844E2,1.4143794E2,2.7940239E1,6.234472E0,2.3857222E0,1.2028687E0,3.608606E0,1.1408271E0,1.0628987E1,4.1046805E0,3.0315754E0,6.315392E1,1.2622549E2,1.5983038E3,7.105764E1,1.467129E1,1.04808784E2,1.3627177E2,4.15335E2,4.5355957E3,4.7558754E1,2.447675E3,9.5445825E2,2.5171858E3,9.958152E3,6.649448E3,1.243037E4,4.046079E0,1.0140138E0,2.7951417E0,1.0119624E0,2.7547941E0,1.0869365E2,2.994161E1,1.1149633E2,1.1446544E0,5.0898175E0,1.3300912E0,1.0556309E0,2.0047812E0,1.603825E0,1.7724756E0,2.3322048E0,1.6645057E0,1.3670697E0,1.353959E0,6.179996E1,1.208164E1,1.1414385E2,1.2799043E2,1.4703134E3,2.9853933E1,4.1203705E1,2.574699E1,7.906179E1,1.0344781E2,3.282397E1,2.7654373E2,1.3879124E2,3.0025998E2,4.2353354E3,8.890106E0,3.8668648E1,2.3587725E3,8.8902596E1,1.6539323E2,7.89065E2,2.1298616E3,3.8732416E2,5.8488154E3,4.1093364E3,5.994425E3,6.5502356E2,2.8843428E3,9.546027E3],"tree_param":{"num_deleted":"0","num_feature":"3","num_nodes":"109","size_leaf_vector":"1"}},{"base_weights":[-5.336884E-3,7.281624E-1,-1.439098E-2,7.843978E-1,-1.4834731E-3,-2.1338817E-1,1.5181872E-2,9.081028E-1,6.0045874E-1,-9.050922E-1,6.501472E-1,-1.8085644E-1,-6.3187087E-1,3.1447148E-1,-1.33547755E-2,4.1930914E-1,9.287788E-1,2.3948526E-1,6.35266E-1,-3.9765432E-1,-1.0777729E0,2.0473494E-1,2.5254935E-1,-5.611612E-1,-1.4057946E-1,-2.2717112E-1,-8.1219935E-1,-1.4327762E-1,8.212055E-1,-2.1786731E-1,2.0854384E-2,5.016363E-1,-2.0002786E-2,2.9657102E-1,2.5633425E-1,-2.906973E-1,4.1696617E-1,6.848026E-1,3.4936127E-1,-1.8291046E-1,-9.121603E-2,-9.202978E-2,-3.3944246E-1,1.9636784E-1,-1.1895052E-3,-4.5247573E-1,-9.4645417E-1,-1.9162633E-1,1.6408764E-1,-5.5357987E-1,2.9426768E-1,-8.532257E-1,-7.9952754E-2,-5.2722506E-2,-7.179265E-1,1.5820704E0,3.628917E-2,-9.60869E-2,-3.3812046E-1,1.3654828E-1,-8.707558E-2,7.396934E-2,2.4050184E-1,5.3520493E-2,-2.285541E-1,1.6995983E-1,9.979055E-3,2.1472697E-1,-4.6736248E-2,1.8570192E-1,2.3569496E-2,5.576939E-2,-9.400104E-2,-1.16722934E-1,1.399012E-1,-2.683398E-1,-1.14029005E-1,-2.2839813E-1,-3.6733276E-1,-3.1184101E-2,-1.7514363E-1,9.992361E-2,-1.6567431E-1,-2.479719E-1,-6.9137104E-2,2.9273444E-1,-1.09106906E-1,-2.1756302E-1,-3.932837E-1,1.6190295E-1,-1.14829585E-1,2.253133E-2,-5.5531636E-2,-1.287104E-1,-2.4063395E-1,4.4656715E-1,6.7193586E-1,-2.7338216E-1,6.237284E-2,1.9050972E-1,-3.6894497E-2,-8.496656E-2,-2.0115174E-1,1.0414915E-2,1.3805504E-1,-6.289664E-2,2.6531579E-2],"categories":[],"categories_nodes":[],"categories_segments":[],"categories_sizes":[],"default_left":[0,0,0,0,0,0,0,0,0,0,0,0,0,0,0,0,0,0,0,0,0,0,0,0,0,0,0,0,0,0,0,0,0,0,0,0,0,0,0,0,0,0,0,0,0,0,0,0,0,0,0,0,0,0,0,0,0,0,0,0,0,0,0,0,0,0,0,0,0,0,0,0,0,0,0,0,0,0,0,0,0,0,0,0,0,0,0,0,0,0,0,0,0,0,0,0,0,0,0,0,0,0,0,0,0,0,0],"id":12,"left_children":[1,3,5,7,9,11,13,15,17,19,21,23,25,27,29,31,33,35,37,39,41,43,-1,45,47,49,51,53,55,57,59,61,-1,-1,-1,63,65,67,69,-1,71,-1,-1,-1,73,75,77,79,81,83,85,87,89,91,93,95,97,99,101,103,105,-1,-1,-1,-1,-1,-1,-1,-1,-1,-1,-1,-1,-1,-1,-1,-1,-1,-1,-1,-1,-1,-1,-1,-1,-1,-1,-1,-1,-1,-1,-1,-1,-1,-1,-1,-1,-1,-1,-1,-1,-1,-1,-1,-1,-1,-1],"loss_changes":[2.7225952E2,2.051178E1,2.3831438E2,1.0014954E1,2.223772E1,7.12151E1,3.0112305E2,2.3951569E0,2.2297058E0,9.57921E-1,1.7011995E0,7.440881E1,2.7366425E1,7.120125E2,2.2520357E2,5.537784E-1,3.2655334E-1,1.8410158E0,2.200882E0,3.0841005E-1,1.1750507E-1,7.347504E-1,0E0,1.9059128E1,6.84389E1,2.0204975E1,7.7655334E0,8.391559E1,8.699368E2,6.751929E1,3.4436108E2,6.6242576E-1,0E0,0E0,0E0,1.2792358E0,7.905619E-1,3.9053497E0,1.9582849E0,0E0,2.7165616E-1,0E0,0E0,0E0,1.3481615E0,1.1333099E1,4.2899323E0,1.2950073E2,7.666037E1,6.228384E0,2.0975622E1,1.35121765E1,3.009485E0,2.361658E1,4.995384E0,4.216028E1,1.169621E2,4.5170586E1,4.2154266E1,4.3863867E2,3.069835E2,0E0,0E0,0E0,0E0,0E0,0E0,0E0,0E0,0E0,0E0,0E0,0E0,0E0,0E0,0E0,0E0,0E0,0E0,0E0,0E0,0E0,0E0,0E0,0E0,0E0,0E0,0E0,0E0,0E0,0E0,0E0,0E0,0E0,0E0,0E0,0E0,0E0,0E0,0E0,0E0,0E0,0E0,0E0,0E0,0E0,0E0],"parents":[2147483647,0,0,1,1,2,2,3,3,4,4,5,5,6,6,7,7,8,8,9,9,10,10,11,11,12,12,13,13,14,14,15,15,16,16,17,17,18,18,19,19,20,20,21,21,23,23,24,24,25,25,26,26,27,27,28,28,29,29,30,30,31,31,35,35,36,36,37,37,38,38,40,40,44,44,45,45,46,46,47,47,48,48,49,49,50,50,51,51,52,52,53,53,54,54,55,55,56,56,57,57,58,58,59,59,60,60],"right_children":[2,4,6,8,10,12,14,16,18,20,22,24,26,28,30,32,34,36,38,40,42,44,-1,46,48,50,52,54,56,58,60,62,-1,-1,-1,64,66,68,70,-1,72,-1,-1,-1,74,76,78,80,82,84,86,88,90,92,94,96,98,100,102,104,106,-1,-1,-1,-1,-1,-1,-1,-1,-1,-1,-1,-1,-1,-1,-1,-1,-1,-1,-1,-1,-1,-1,-1,-1,-1,-1,-1,-1,-1,-1,-1,-1,-1,-1,-1,-1,-1,-1,-1,-1,-1,-1,-1,-1,-1,-1],"split_conditions":[1E0,5.80952E5,2.5E1,2.1E1,6.23571E5,2E0,2.8E1,1.7526E4,3.2587E4,1.8E1,6.26095E5,1.4E1,3.78059E5,5.35887E5,1.57834E5,1.9E1,1.6E1,2.4E1,5.53421E5,5.90978E5,5.83474E5,1.4E1,2.5254935E-1,5.28371E5,5.80952E5,1.85424E5,6.21065E5,5.03298E5,5.43369E5,2E0,3.6302E5,1.0036E4,-2.0002786E-2,2.9657102E-1,2.5633425E-1,2.3E1,1.7526E4,8.9E1,2.7E1,-1.8291046E-1,6.03566E5,-9.202978E-2,-3.3944246E-1,1.9636784E-1,2.1E1,1E1,5.73467E5,5.28371E5,6.23571E5,2.2E1,3.60485E5,5.80952E5,6.23571E5,3.6553E5,5.13353E5,5.40901E5,5.55943E5,5.021E3,1.30278E5,2.73142E5,5.80952E5,7.396934E-2,2.4050184E-1,5.3520493E-2,-2.285541E-1,1.6995983E-1,9.979055E-3,2.1472697E-1,-4.6736248E-2,1.8570192E-1,2.3569496E-2,5.576939E-2,-9.400104E-2,-1.16722934E-1,1.399012E-1,-2.683398E-1,-1.14029005E-1,-2.2839813E-1,-3.6733276E-1,-3.1184101E-2,-1.7514363E-1,9.992361E-2,-1.6567431E-1,-2.479719E-1,-6.9137104E-2,2.9273444E-1,-1.09106906E-1,-2.1756302E-1,-3.932837E-1,1.6190295E-1,-1.14829585E-1,2.253133E-2,-5.5531636E-2,-1.287104E-1,-2.4063395E-1,4.4656715E-1,6.7193586E-1,-2.7338216E-1,6.237284E-2,1.9050972E-1,-3.6894497E-2,-8.496656E-2,-2.0115174E-1,1.0414915E-2,1.3805504E-1,-6.289664E-2,2.6531579E-2],"split_indices":[2,0,1,1,0,2,1,0,0,1,0,1,0,0,0,1,1,1,0,0,0,1,0,0,0,0,0,0,0,2,0,0,0,0,0,1,0,1,1,0,0,0,0,0,1,1,0,0,0,1,0,0,0,0,0,0,0,0,0,0,0,0,0,0,0,0,0,0,0,0,0,0,0,0,0,0,0,0,0,0,0,0,0,0,0,0,0,0,0,0,0,0,0,0,0,0,0,0,0,0,0,0,0,0,0,0,0],"split_type":[0,0,0,0,0,0,0,0,0,0,0,0,0,0,0,0,0,0,0,0,0,0,0,0,0,0,0,0,0,0,0,0,0,0,0,0,0,0,0,0,0,0,0,0,0,0,0,0,0,0,0,0,0,0,0,0,0,0,0,0,0,0,0,0,0,0,0,0,0,0,0,0,0,0,0,0,0,0,0,0,0,0,0,0,0,0,0,0,0,0,0,0,0,0,0,0,0,0,0,0,0,0,0,0,0,0,0],"sum_hessian":[4.0993125E4,4.9886865E2,4.0494258E4,4.6310138E2,3.576728E1,5.238424E3,3.5255832E4,2.745324E2,1.8856895E2,1.4823181E1,2.09441E1,4.861905E3,3.7651944E2,3.0680803E3,3.2187752E4,1.2005101E1,2.625273E2,1.7276878E1,1.7129208E2,4.602156E0,1.0221025E1,6.9237056E0,1.4020393E1,4.643615E2,4.397543E3,1.1675449E2,2.5976495E2,1.6123291E3,1.4557513E3,4.6117812E3,2.757597E4,1.0238471E1,1.7666296E0,1.3867746E2,1.2384984E2,4.1730285E0,1.310385E1,1.4480719E2,2.6484894E1,2.1350906E0,2.4670653E0,1.102641E0,9.118384E0,1.4900904E0,5.433615E0,3.638883E2,1.004732E2,3.7667898E3,6.307533E2,7.176783E1,4.4986664E1,2.4582654E2,1.3938407E1,1.3937837E3,2.185454E2,7.386853E2,7.17066E2,2.292234E3,2.3195474E3,1.3309157E4,1.4266814E4,6.518576E0,3.7198954E0,2.402417E0,1.7706119E0,9.0857525E0,4.0180984E0,1.3980742E2,4.9997687E0,1.2626347E1,1.3858547E1,1.1702095E0,1.2968559E0,3.0614557E0,2.3721597E0,4.9605984E1,3.1428232E2,6.2553936E1,3.7919262E1,3.0795686E3,6.872212E2,5.107881E2,1.1996525E2,3.805699E1,3.3710842E1,2.186048E1,2.3126183E1,1.9411935E2,5.1707184E1,4.3188205E0,9.619587E0,7.093138E2,6.8446985E2,5.0691257E1,1.6785414E2,6.495906E2,8.9094734E1,1.0929705E2,6.07769E2,8.052745E1,2.2117065E3,1.9923345E3,3.2721292E2,1.0124566E4,3.1845903E3,8.400014E3,5.866801E3],"tree_param":{"num_deleted":"0","num_feature":"3","num_nodes":"107","size_leaf_vector":"1"}},{"base_weights":[-4.008044E-3,4.4363677E-3,-6.536604E-1,6.5730715E-1,-2.2129226E-3,-8.698088E-1,-1.582611E-1,7.1764666E-1,-4.588378E-1,-2.7425177E-2,1.5302011E-1,2.0977885E-1,-8.946862E-1,-2.0873539E-1,2.0882509E0,8.652436E-1,5.17182E-1,-7.785391E-1,1.8311267E-1,2.299861E-4,-2.6577723E-1,5.7366896E-1,8.8414595E-2,-9.5067704E-1,-4.962798E-1,-6.531549E-2,-5.8442754E-1,1.9949372E-1,7.9772395E-1,3.5671282E-1,8.9066315E-1,-2.6926807E-1,5.318979E-1,-3.346795E-1,-9.4481E-1,4.4832587E-1,-1.7432782E-1,-1.9522382E-2,8.4892094E-1,-7.278232E-1,-1.4010035E-1,2.871481E-1,8.395055E-1,1.17355235E-1,-6.535265E-1,-6.9304776E-1,-1.0135752E0,-7.739206E-1,1.1515203E0,-2.340698E-1,5.2057743E-1,-6.5926915E-1,-2.2905326E-1,2.1385561E-1,6.0520533E-2,2.900259E-1,2.3988791E-1,-2.4261105E-1,1.6045488E-1,1.7255977E-1,8.441958E-2,-1.5652938E-1,-2.3004921E-2,-7.914272E-2,-2.99542E-1,5.944247E-2,1.8884887E-1,-2.6002768E-1,1.1068647E-1,2.558987E-4,-1.0566613E-1,3.670738E-1,-3.3549017E-1,-1.4618243E-1,-2.548498E-1,-9.1060335E-3,-1.6651642E-1,5.500218E-2,2.6242593E-1,2.6065466E-1,-3.686661E-2,8.068837E-2,6.347422E-3,-1.4033233E-1,-3.0175555E-1,-1.6026609E-1,-2.3130985E-1,-3.085978E-1,-2.2306791E-1,-1.6564709E-1,-2.836995E-1,2.1594964E-1,-9.194021E-2,2.980271E-1,-2.7196824E-3,-1.5878066E-1,-2.3216832E-1,-1.1456915E-1,1.4430642E-1],"categories":[],"categories_nodes":[],"categories_segments":[],"categories_sizes":[],"default_left":[0,0,0,0,0,0,0,0,0,0,0,0,0,0,0,0,0,0,0,0,0,0,0,0,0,0,0,0,0,0,0,0,0,0,0,0,0,0,0,0,0,0,0,0,0,0,0,0,0,0,0,0,0,0,0,0,0,0,0,0,0,0,0,0,0,0,0,0,0,0,0,0,0,0,0,0,0,0,0,0,0,0,0,0,0,0,0,0,0,0,0,0,0,0,0,0,0,0,0],"id":13,"left_children":[1,3,5,7,9,11,13,15,17,19,21,-1,23,25,27,29,31,33,35,37,39,41,43,45,47,49,51,-1,-1,53,55,57,59,61,63,65,67,69,71,73,75,77,79,81,83,85,87,89,-1,91,93,95,97,-1,-1,-1,-1,-1,-1,-1,-1,-1,-1,-1,-1,-1,-1,-1,-1,-1,-1,-1,-1,-1,-1,-1,-1,-1,-1,-1,-1,-1,-1,-1,-1,-1,-1,-1,-1,-1,-1,-1,-1,-1,-1,-1,-1,-1,-1],"loss_changes":[2.1686134E2,1.6940822E2,5.4177216E1,2.6826584E1,1.5119817E2,1.44021E1,1.8046324E1,1.06081085E1,4.409088E0,2.1907034E2,1.4664127E2,0E0,7.2879333E0,8.19514E0,1.0782585E0,2.444931E0,2.0057678E0,7.2202015E-1,8.10073E-1,4.992425E2,2.0053543E2,5.448297E1,1.0057402E2,4.2221375E0,5.707395E1,1.1167114E1,9.684658E-1,0E0,0E0,5.0981784E-1,6.322632E-1,2.0027623E0,1.5553665E0,2.1977812E-1,9.055328E-2,8.885497E-2,1.8277845E0,1.9729115E2,5.0060797E2,2.1204315E1,1.2374144E2,2.1024227E1,1.0616699E1,6.570242E1,1.1038841E1,3.6593437E-1,2.2120667E-1,1.1186848E0,0E0,6.2579436E0,6.342977E0,1.00564E-1,1.1446977E0,0E0,0E0,0E0,0E0,0E0,0E0,0E0,0E0,0E0,0E0,0E0,0E0,0E0,0E0,0E0,0E0,0E0,0E0,0E0,0E0,0E0,0E0,0E0,0E0,0E0,0E0,0E0,0E0,0E0,0E0,0E0,0E0,0E0,0E0,0E0,0E0,0E0,0E0,0E0,0E0,0E0,0E0,0E0,0E0,0E0,0E0],"parents":[2147483647,0,0,1,1,2,2,3,3,4,4,5,5,6,6,7,7,8,8,9,9,10,10,12,12,13,13,14,14,15,15,16,16,17,17,18,18,19,19,20,20,21,21,22,22,23,23,24,24,25,25,26,26,29,29,30,30,31,31,32,32,33,33,34,34,35,35,36,36,37,37,38,38,39,39,40,40,41,41,42,42,43,43,44,44,45,45,46,46,47,47,49,49,50,50,51,51,52,52],"right_children":[2,4,6,8,10,12,14,16,18,20,22,-1,24,26,28,30,32,34,36,38,40,42,44,46,48,50,52,-1,-1,54,56,58,60,62,64,66,68,70,72,74,76,78,80,82,84,86,88,90,-1,92,94,96,98,-1,-1,-1,-1,-1,-1,-1,-1,-1,-1,-1,-1,-1,-1,-1,-1,-1,-1,-1,-1,-1,-1,-1,-1,-1,-1,-1,-1,-1,-1,-1,-1,-1,-1,-1,-1,-1,-1,-1,-1,-1,-1,-1,-1,-1,-1],"split_conditions":[6.26095E5,1E0,6.38629E5,5.80952E5,5.88522E5,1E0,1.02E2,2.1E1,6.23571E5,5.43369E5,5.93553E5,2.0977885E-1,4.7E1,4.6E1,3E0,1.7526E4,7.534E3,1.8E1,1.9E1,5.384E5,5.55943E5,5.90978E5,9.5E1,3E1,6.31089E5,3.6E1,3E0,1.9949372E-1,7.9772395E-1,1.2E1,1.6E1,2.8E1,5.53421E5,5.90978E5,5.83474E5,1.6E1,2.3E1,5.13353E5,2.8E1,5.48428E5,5.4E1,6.5E1,4E0,3.6E1,1.51E2,6.2861E5,4.3E1,5.9E1,1.1515203E0,1E0,4.1E1,2E0,8.6E1,2.1385561E-1,6.0520533E-2,2.900259E-1,2.3988791E-1,-2.4261105E-1,1.6045488E-1,1.7255977E-1,8.441958E-2,-1.5652938E-1,-2.3004921E-2,-7.914272E-2,-2.99542E-1,5.944247E-2,1.8884887E-1,-2.6002768E-1,1.1068647E-1,2.558987E-4,-1.0566613E-1,3.670738E-1,-3.3549017E-1,-1.4618243E-1,-2.548498E-1,-9.1060335E-3,-1.6651642E-1,5.500218E-2,2.6242593E-1,2.6065466E-1,-3.686661E-2,8.068837E-2,6.347422E-3,-1.4033233E-1,-3.0175555E-1,-1.6026609E-1,-2.3130985E-1,-3.085978E-1,-2.2306791E-1,-1.6564709E-1,-2.836995E-1,2.1594964E-1,-9.194021E-2,2.980271E-1,-2.7196824E-3,-1.5878066E-1,-2.3216832E-1,-1.1456915E-1,1.4430642E-1],"split_indices":[0,2,0,0,0,2,1,1,0,0,0,0,1,1,2,0,0,1,1,0,0,0,1,1,0,1,2,0,0,1,1,1,0,0,0,1,1,0,1,0,1,1,2,1,1,0,1,1,0,2,1,2,1,0,0,0,0,0,0,0,0,0,0,0,0,0,0,0,0,0,0,0,0,0,0,0,0,0,0,0,0,0,0,0,0,0,0,0,0,0,0,0,0,0,0,0,0,0,0],"split_type":[0,0,0,0,0,0,0,0,0,0,0,0,0,0,0,0,0,0,0,0,0,0,0,0,0,0,0,0,0,0,0,0,0,0,0,0,0,0,0,0,0,0,0,0,0,0,0,0,0,0,0,0,0,0,0,0,0,0,0,0,0,0,0,0,0,0,0,0,0,0,0,0,0,0,0,0,0,0,0,0,0,0,0,0,0,0,0,0,0,0,0,0,0,0,0,0,0,0,0],"sum_hessian":[3.9528918E4,3.902268E4,5.0623743E2,3.924406E2,3.863024E4,3.5193042E2,1.54307E2,3.7265186E2,1.9788765E1,3.3233438E4,5.3968027E3,5.0696387E0,3.4686078E2,1.5180339E2,2.5036113E0,2.1271732E2,1.5993454E2,1.3067951E1,6.7208147E0,2.9779252E4,3.4541843E3,7.174674E2,4.679335E3,3.0290518E2,4.3955597E1,1.1071281E2,4.109059E1,1.3364125E0,1.1671987E0,1.0842402E1,2.0187492E2,2.6199584E0,1.5731458E2,4.382292E0,8.685659E0,3.7121851E0,3.0086296E0,2.910289E4,6.7636145E2,7.376079E2,2.7165764E3,3.4630118E2,3.711662E2,4.5044727E3,1.748626E2,6.179853E1,2.4110666E2,4.208168E1,1.8739167E0,8.64214E1,2.42914E1,3.3235973E1,7.8546195E0,2.1960857E0,8.646317E0,1.04725006E2,9.714992E1,1.5646341E0,1.0553242E0,1.3302386E2,2.4290716E1,1.9476153E0,2.4346764E0,1.0665741E0,7.6190853E0,2.43848E0,1.2737051E0,1.060974E0,1.9476554E0,2.7424344E4,1.6785477E3,5.6847345E2,1.0788802E2,2.4945348E2,4.8815445E2,2.149224E3,5.673524E2,2.9542313E2,5.0878044E1,3.6027853E2,1.0887689E1,1.7479387E3,2.756534E3,1.16021645E2,5.884095E1,2.2936148E1,3.886238E1,2.2568916E2,1.5417497E1,2.0205927E1,2.1875753E1,5.465525E0,8.095588E1,1.2371196E1,1.1920205E1,1.820568E1,1.50302925E1,6.8436866E0,1.0109334E0],"tree_param":{"num_deleted":"0","num_feature":"3","num_nodes":"99","size_leaf_vector":"1"}},{"base_weights":[-3.145248E-3,3.2035306E-3,-5.729672E-1,5.85166E-1,-1.7511583E-3,-8.091889E-1,-1.195243E-1,6.43381E-1,-3.8391933E-1,-1.5562858E-1,2.0385243E-2,1.9053473E-1,-8.3319634E-1,-1.623033E-1,1.171895E0,8.314284E-1,4.485174E-1,-6.736532E-1,1.5367067E-1,-1.2850736E-1,-5.2187705E-1,1.4608991E-1,-2.6500948E-2,-8.972376E-1,-4.3406475E-1,-4.785447E-2,-4.9770784E-1,5.0516677E-1,4.6081337E-1,1.6166839E-1,8.567105E-1,1.9015042E-2,4.9633658E-1,-3.219548E-1,-9.036476E-1,3.9563307E-1,-1.4837183E-1,-4.526014E-1,-9.6780226E-2,-1.8600176E-1,-6.7065567E-1,-8.525698E-1,1.6799392E-1,-1.9757538E-1,1.084342E-2,-5.86113E-1,-9.8381555E-1,1.3791801E0,-7.149361E-1,-1.7567918E-1,3.2793748E-1,-5.7263666E-1,-1.739086E-1,2.6473776E-1,-2.976337E-2,-3.900922E-2,1.9571035E-1,2.8329113E-1,2.2142603E-1,-1.2960638E-1,7.6811865E-2,2.002403E-1,1.17792845E-1,-1.758793E-1,7.1323186E-2,-3.0244893E-1,-5.1778242E-2,1.7551005E-1,4.295915E-2,-2.4460949E-1,1.11372985E-1,-1.1938734E-1,-3.807049E-1,1.6679581E-2,-4.3202017E-2,-1.3838744E-1,7.881945E-2,-2.5507903E-1,-1.548036E-1,4.2074817E-1,-2.616014E-1,2.6317349E-2,9.644729E-2,9.7517155E-2,-7.053525E-2,4.0601783E-2,-3.2205526E-2,-1.9739436E-1,-1.24548584E-1,-3.0139804E-1,-1.9633193E-1,-1.9125864E-1,1.6056085E0,-1.3945255E-1,-2.6536736E-1,1.9695526E-1,-6.972171E-2,3.2617018E-1,3.847964E-2,-1.3011695E-1,-2.1344332E-1,6.118907E-2,-1.3166499E-1],"categories":[],"categories_nodes":[],"categories_segments":[],"categories_sizes":[],"default_left":[0,0,0,0,0,0,0,0,0,0,0,0,0,0,0,0,0,0,0,0,0,0,0,0,0,0,0,0,0,0,0,0,0,0,0,0,0,0,0,0,0,0,0,0,0,0,0,0,0,0,0,0,0,0,0,0,0,0,0,0,0,0,0,0,0,0,0,0,0,0,0,0,0,0,0,0,0,0,0,0,0,0,0,0,0,0,0,0,0,0,0,0,0,0,0,0,0,0,0,0,0,0,0],"id":14,"left_children":[1,3,5,7,9,11,13,15,17,19,21,-1,23,25,27,29,31,33,35,37,39,41,43,45,47,49,51,53,-1,55,57,59,61,63,65,67,69,71,73,75,77,79,81,83,85,87,89,91,93,95,97,99,101,-1,-1,-1,-1,-1,-1,-1,-1,-1,-1,-1,-1,-1,-1,-1,-1,-1,-1,-1,-1,-1,-1,-1,-1,-1,-1,-1,-1,-1,-1,-1,-1,-1,-1,-1,-1,-1,-1,-1,-1,-1,-1,-1,-1,-1,-1,-1,-1,-1,-1],"loss_changes":[1.4042442E2,1.1069353E2,4.571692E1,1.8530006E1,1.2966684E2,1.0274002E1,8.348444E0,1.0843239E1,3.0615454E0,4.7487503E1,1.961467E2,0E0,6.68779E0,5.496784E0,4.031515E-1,2.4792786E0,3.122486E0,7.222853E-1,6.042703E-1,4.5803444E1,1.6353241E1,1.9790927E2,1.5486066E2,5.825058E0,2.1469658E1,5.2614574E0,7.8554344E-1,8.18506E-1,0E0,1.0661784E0,8.4853363E-1,1.8549801E0,2.1721115E0,1.1018587E0,3.6236525E-1,1.2743199E-1,1.7055058E0,1.7219055E1,2.9242592E1,1.2796818E1,5.8979034E0,9.734375E0,1.08985E2,8.529483E1,2.9279922E2,3.9286232E-1,6.088562E-1,4.936842E1,1.0941105E0,3.9994342E0,4.082178E0,2.5440598E-1,9.1975504E-1,0E0,0E0,0E0,0E0,0E0,0E0,0E0,0E0,0E0,0E0,0E0,0E0,0E0,0E0,0E0,0E0,0E0,0E0,0E0,0E0,0E0,0E0,0E0,0E0,0E0,0E0,0E0,0E0,0E0,0E0,0E0,0E0,0E0,0E0,0E0,0E0,0E0,0E0,0E0,0E0,0E0,0E0,0E0,0E0,0E0,0E0,0E0,0E0,0E0,0E0],"parents":[2147483647,0,0,1,1,2,2,3,3,4,4,5,5,6,6,7,7,8,8,9,9,10,10,12,12,13,13,14,14,15,15,16,16,17,17,18,18,19,19,20,20,21,21,22,22,23,23,24,24,25,25,26,26,27,27,29,29,30,30,31,31,32,32,33,33,34,34,35,35,36,36,37,37,38,38,39,39,40,40,41,41,42,42,43,43,44,44,45,45,46,46,47,47,48,48,49,49,50,50,51,51,52,52],"right_children":[2,4,6,8,10,12,14,16,18,20,22,-1,24,26,28,30,32,34,36,38,40,42,44,46,48,50,52,54,-1,56,58,60,62,64,66,68,70,72,74,76,78,80,82,84,86,88,90,92,94,96,98,100,102,-1,-1,-1,-1,-1,-1,-1,-1,-1,-1,-1,-1,-1,-1,-1,-1,-1,-1,-1,-1,-1,-1,-1,-1,-1,-1,-1,-1,-1,-1,-1,-1,-1,-1,-1,-1,-1,-1,-1,-1,-1,-1,-1,-1,-1,-1,-1,-1,-1,-1],"split_conditions":[6.26095E5,1E0,6.38629E5,5.80952E5,2.5E1,1E0,1.02E2,2E1,6.23571E5,2E0,3.6E1,1.9053473E-1,4.7E1,4.6E1,1.45E2,1.0036E4,3.2587E4,6.01044E5,1.9E1,1.4E1,3.78059E5,1.2537E4,1.8793E5,3E1,4.9E1,3.6E1,3E0,1.07E2,4.6081337E-1,1.6E1,1.6E1,2.4E1,2.4E1,5.90978E5,6.18562E5,1.4E1,2.1E1,5.73467E5,1.3278E5,1.85424E5,2.2E1,2.506E3,5.35887E5,1.0036E4,3.50459E5,2.6E1,4.3E1,3E0,5.9E1,1E0,3.7E1,2E0,6.4E1,2.6473776E-1,-2.976337E-2,-3.900922E-2,1.9571035E-1,2.8329113E-1,2.2142603E-1,-1.2960638E-1,7.6811865E-2,2.002403E-1,1.17792845E-1,-1.758793E-1,7.1323186E-2,-3.0244893E-1,-5.1778242E-2,1.7551005E-1,4.295915E-2,-2.4460949E-1,1.11372985E-1,-1.1938734E-1,-3.807049E-1,1.6679581E-2,-4.3202017E-2,-1.3838744E-1,7.881945E-2,-2.5507903E-1,-1.548036E-1,4.2074817E-1,-2.616014E-1,2.6317349E-2,9.644729E-2,9.7517155E-2,-7.053525E-2,4.0601783E-2,-3.2205526E-2,-1.9739436E-1,-1.24548584E-1,-3.0139804E-1,-1.9633193E-1,-1.9125864E-1,1.6056085E0,-1.3945255E-1,-2.6536736E-1,1.9695526E-1,-6.972171E-2,3.2617018E-1,3.847964E-2,-1.3011695E-1,-2.1344332E-1,6.118907E-2,-1.3166499E-1],"split_indices":[0,2,0,0,1,2,1,1,0,2,1,0,1,1,1,0,0,0,1,1,0,0,0,1,1,1,2,1,0,1,1,1,1,0,0,1,1,0,0,0,1,0,0,0,0,1,1,2,1,2,1,2,1,0,0,0,0,0,0,0,0,0,0,0,0,0,0,0,0,0,0,0,0,0,0,0,0,0,0,0,0,0,0,0,0,0,0,0,0,0,0,0,0,0,0,0,0,0,0,0,0,0,0],"split_type":[0,0,0,0,0,0,0,0,0,0,0,0,0,0,0,0,0,0,0,0,0,0,0,0,0,0,0,0,0,0,0,0,0,0,0,0,0,0,0,0,0,0,0,0,0,0,0,0,0,0,0,0,0,0,0,0,0,0,0,0,0,0,0,0,0,0,0,0,0,0,0,0,0,0,0,0,0,0,0,0,0,0,0,0,0,0,0,0,0,0,0,0,0,0,0,0,0,0,0,0,0,0,0],"sum_hessian":[3.881472E4,3.8388004E4,4.2671283E2,3.2307867E2,3.8064926E4,2.8004068E2,1.4667213E2,3.0508752E2,1.7991156E1,4.786482E3,3.3278445E4,4.1625724E0,2.758781E2,1.4281561E2,3.8565273E0,1.5359674E2,1.5149078E2,1.1526082E1,6.465074E0,4.4577314E3,3.2875052E2,9.039878E3,2.4238566E4,2.3665802E2,3.9220097E1,1.0733333E2,3.5482273E1,2.2055657E0,1.6509616E0,5.856043E0,1.4774069E2,1.5316718E1,1.3617406E2,5.5061436E0,6.0199385E0,3.4174998E0,3.0475743E0,3.962951E2,4.0614363E3,1.0161033E2,2.2714018E2,1.9320581E2,8.846672E3,4.3422847E3,1.9896283E4,5.3210743E1,1.8344727E2,4.735884E0,3.448421E1,8.048803E1,2.6845299E1,2.819038E1,7.291894E0,1.0746115E0,1.1309541E0,4.1337314E0,1.7223115E0,8.0982086E1,6.6758606E1,4.992932E0,1.0323787E1,4.932825E1,8.684581E1,3.7077491E0,1.7983943E0,4.9353046E0,1.084634E0,1.1997702E0,2.2177296E0,1.0852914E0,1.9622829E0,3.7282867E2,2.346642E1,9.608913E2,3.100545E3,6.295847E1,3.865186E1,1.0300682E2,1.2413336E2,1.0428044E0,1.9216301E2,5.809983E3,3.0366892E3,2.905005E2,4.0517844E3,9.689799E3,1.0206483E4,3.5456013E1,1.775473E1,1.706006E2,1.284667E1,3.6981478E0,1.0377363E0,1.5447907E1,1.9036304E1,4.4615946E0,7.6026436E1,4.664067E0,2.218123E1,1.6152918E1,1.2037463E1,3.1005495E0,4.1913443E0],"tree_param":{"num_deleted":"0","num_feature":"3","num_nodes":"103","size_leaf_vector":"1"}},{"base_weights":[-2.8732922E-3,2.3063603E-3,-5.5584073E-1,7.215664E-3,-5.0080216E-1,-8.706069E-1,9.41027E-1,-1.24983275E-2,1.0661496E-1,-7.4554586E-1,-1.0468035E-1,-1.0632029E0,-3.4256428E-1,1.7910784E-2,3.213291E-1,1.1866456E-2,-2.9549098E-1,1.2681715E-1,-5.500358E-1,5.708064E-1,-7.686459E-1,1.93352E-1,-1.3304207E-1,-8.6069566E-1,-1.5826056E0,1.7361586E-1,-8.744574E-1,-4.676893E-2,1.670093E-1,-2.1975238E-3,3.5731804E-1,-4.0931913E-1,-7.328175E-2,2.264352E-1,6.314713E-2,-1.8031406E0,-4.7947383E-1,2.0699891E-1,5.439282E-2,-8.386631E-1,-3.4694397E-1,2.5682265E-1,-1.7342651E-1,-1.0040754E0,6.810263E-1,-6.1959165E-1,-5.6518334E-1,2.97529E-1,-2.4288075E-1,-1.1243907E0,4.212965E-1,2.2908777E-3,-1.3083982E-1,-4.3241158E-2,-1.6843618E-1,3.4773168E-1,-1.2189663E-1,3.2334164E-2,1.1467043E-1,-4.5643817E-3,7.771217E-2,-7.176286E-1,-3.5342747E-1,3.5634944E-1,-1.7136498E-1,-1.4961846E-1,-2.8601345E-1,4.3585178E-1,-1.9159164E-1,-8.724515E-3,2.8320453E-1,-2.874304E-1,-3.9593626E-2,-2.1620904E-1,-3.9147857E-1,-1.4128621E-1,3.1345412E-1,-2.9572907E-1,2.0800188E-1,2.3327796E-1,3.4999955E-2,-2.6543048E-1,-5.791419E-1,2.0429838E-1,-7.930455E-2],"categories":[],"categories_nodes":[],"categories_segments":[],"categories_sizes":[],"default_left":[0,0,0,0,0,0,0,0,0,0,0,0,0,0,0,0,0,0,0,0,0,0,0,0,0,0,0,0,0,0,0,0,0,0,0,0,0,0,0,0,0,0,0,0,0,0,0,0,0,0,0,0,0,0,0,0,0,0,0,0,0,0,0,0,0,0,0,0,0,0,0,0,0,0,0,0,0,0,0,0,0,0,0,0,0],"id":15,"left_children":[1,3,5,7,9,11,13,15,17,19,21,23,25,27,-1,29,31,33,35,37,39,-1,41,43,45,47,49,-1,-1,51,-1,53,55,57,59,61,63,-1,-1,65,67,69,71,73,75,-1,77,79,-1,81,83,-1,-1,-1,-1,-1,-1,-1,-1,-1,-1,-1,-1,-1,-1,-1,-1,-1,-1,-1,-1,-1,-1,-1,-1,-1,-1,-1,-1,-1,-1,-1,-1,-1,-1],"loss_changes":[1.0950454E2,9.35594E1,1.679881E2,7.3510445E1,3.5410416E1,2.9502121E1,7.4402695E0,2.1585571E2,8.243382E1,7.313858E0,3.0808601E0,2.1221893E1,2.210558E1,9.0053064E-1,0E0,4.7803586E2,6.27406E1,3.8195663E1,1.5537781E1,8.255696E-2,